%YAML:1.0
---
opencv_ml_svm:
   format: 3
   svmType: C_SVC
   kernel:
      type: RBF
      gamma: 0.001
   C: 10.
   term_criteria: { epsilon:9.9999999999999995e-07, iterations:5000 }
   var_count: 600
   class_count: 18
   class_labels: !!opencv-matrix
      rows: 18
      cols: 1
      dt: i
      data: [ 48, 49, 50, 51, 52, 53, 54, 55, 56, 57, 65, 66, 68, 69, 70,
          75, 76, 89 ]
   sv_total: 114
   support_vectors:
      - [ 0., 10.6770639, 7.51665354, 6.11010933, 5.26783276, 3.43187618,
          2.40098071, 2.05603337, 1.85015655, 1.76271009, 1.85015655,
          2.11570001, 2.92973208, 3.92792392, 5.26783228, 5.26783228,
          7.51665354, 10.6770639, 10.6770639, 10.6770639, 10.6770639,
          10.6770639, 6.11010218, 3.65718246, 2.6859448, 1.99999881,
          1.6461091, 1.48136687, 1.18145382, 1.00873435, 0.861640036,
          1.0444665, 1.31836903, 2.11570024, 2.92973399, 3.07482171,
          5.26782846, 10.6770639, 10.6770639, 10.6770639, 6.11010742,
          5.2678318, 3.07482147, -0.527046323, -0.688737631,
          -0.924575269, -1.22474492, -1.48136663, -1.99999821,
          -2.11569929, -2.6859436, -2.48746657, -1.99999917, -1.39596522,
          -0.846414685, -0.527046323, 2.58198786, 4.26223564, 10.6770639,
          7.51665354, 5.2678318, 3.92792439, -0.472656339, -0.716350555,
          -1.02643597, -1.45193315, -1.85015595, -2.2478044, -2.6859436,
          -2.80109644, -2.92973399, -3.24037004, -3.24037242,
          -2.11569953, -1.34345758, -0.940875351, -0.499999702,
          3.92792416, 10.6770639, 7.51665354, 4.69041824, 3.43187666,
          -0.620920539, -0.974243999, -1.45193315, -1.85015583,
          -2.2478044, -2.11569953, -1.94721866, -1.76270962, -1.85015643,
          -2.32139897, -2.58198881, -2.32139897, -1.45193326,
          -1.16057646, -0.744348109, 2.92973495, 7.51665354, 10.6770639,
          4.26223707, 2.68594289, -0.716350555, -1.18145382, -1.51185739,
          -1.85015607, -1.57634044, -1.54348791, -1.24721873,
          -0.991342366, -1.00873435, -1.14017522, -1.48136663,
          -1.85015607, -1.36930609, -1.1814537, -0.801784337, 2.2478044,
          7.51665354, 7.51665354, 3.65718246, 2.48746634, -0.772801816,
          -1.24721885, -1.51185739, -1.42348611, -1.12022412,
          -0.957427502, -0.716350496, -0.688737631, -0.702499568,
          -0.758513808, -0.908513129, -1.45193326, -1.22474492,
          -1.0444665, 1.18145394, 2.05603242, 7.51665354, 7.51665354,
          5.2678318, 2.68594265, -0.787222087, -1.18145382, -1.36930609,
          -1.24721873, -0.89267844, -0.730296552, -0.661437452,
          -0.647883832, -0.594088674, -0.661437392, -0.772801876,
          -1.04446638, -1.12022388, 0.957427621, 1.16057634, 2.11570048,
          4.69041967, 10.6770639, 5.26783276, 3.92792416, -0.801784337,
          -1.10069859, -1.16057646, -1.14017534, -0.744348109,
          -0.553911626, -0.580697417, -0.580697358, -0.580697358,
          1.6832509, 1.39596534, 1.120224, 1.02643573, 1.120224,
          1.24722004, 2.17945027, 4.6904192, 10.6770639, 6.1101017,
          3.92792416, -0.744348109, -1.0444665, -1.0444665, -1.00873435,
          -0.787221968, -0.553911626, -0.499999702, -0.580697358,
          -0.580697298, 1.6832509, 1.31836927, 1.18145394, 1.120224,
          1.16057634, 1.29399359, 2.24780464, 4.69041729, 10.6770639,
          6.1101017, 4.26223707, -0.758513868, -1.0444665, -1.0444665,
          -1.02643585, -0.831370175, -0.647883773, -0.647883773,
          -0.716350496, -0.702499688, -0.758513689, 1.20283353,
          1.00873435, 1.14017534, 1.18145394, 1.29399359, 2.40098071,
          5.26783133, 10.6770639, 6.1101017, 3.92792416, -0.716350496,
          -1.0444665, -1.0628407, -1.20283353, -0.974243999,
          -0.758513749, -0.787221968, -0.846414685, -0.87705785,
          -0.974243999, -1.02643585, -1.10069847, 0.991342425,
          1.18145394, 1.39596534, 2.58198762, 5.26783133, 7.51665354,
          7.51665354, 4.26223707, -0.67505312, -1.02643597, -1.08157873,
          -1.24721873, -1.02643585, -0.861640155, -0.846414685,
          -0.87705791, -0.991342366, -1.14017534, -1.20283353,
          -1.24721861, -1.14017522, -0.957427561, 1.39596534, 2.58198762,
          5.26783133, 10.6770639, 7.51665354, 3.92792416, -0.661437511,
          -0.991342366, -1.10069859, -1.29399371, -1.0444665,
          -0.940875351, -0.957427621, -0.957427621, -1.27029014,
          -1.34345758, -1.29399359, -1.24721861, -1.24721861,
          -0.991342366, -0.647883832, 2.58198762, 6.11010265, 10.6770639,
          7.51665354, 4.26223564, 1.57634044, -0.92457521, -1.12022376,
          -1.29399371, -1.120224, -0.924575269, -0.861640036,
          -0.892678499, -1.0628407, -1.14017534, -1.51185691,
          -1.42348599, -1.27029026, -0.991342366, -0.772801757,
          2.40098071, 6.11010265, 10.6770639, 7.51665354, 4.26223469,
          1.64610922, 1.0628407, 0.877057731, -1.29399371, -1.0444665,
          -0.831370115, -0.831370234, -0.974243999, -0.974243999,
          -1.10069859, -1.27029014, -1.45193338, -1.18145382,
          -1.08157873, -0.801784217, -0.372309029, 6.11010265,
          10.6770639, 7.51665354, 4.69041872, 1.72206819, 1.12022412,
          0.924575329, 0.831370294, 0.991342425, 1.39596522, 1.18145394,
          1.0444665, -0.991342366, -1.10069859, -1.18145394, -1.31836939,
          -1.22474492, -1.08157873, -0.846414685, -0.472656369,
          6.11010265, 10.6770639, 7.51665354, 4.69041872, 1.72206819,
          1.18145394, 1.00873435, 0.940875351, 1.24722004, 1.36930597,
          1.36930597, 1.27029037, 1.16057646, -0.991342366, -1.08157861,
          -1.120224, -1.14017522, -1.10069859, -0.908513069,
          -0.472656369, 6.11010265, 6.11010265, 7.51665354, 5.26783085,
          1.76270878, 1.31836927, 1.14017546, 1.0628407, 1.29399359,
          1.57634044, 1.48136663, 1.31836915, 1.2472198, 1.08157873,
          -0.940875351, -1.0444665, -1.12022388, -1.10069859,
          -0.92457521, -0.553911567, 4.69041586, 6.11010265, 10.6770639,
          5.2678299, 1.76270878, 1.36930585, 1.18145394, 1.16057622,
          1.39596522, 1.68325067, 1.57634044, 1.39596522, 1.31836915,
          -0.744348109, -0.831370234, -0.908513129, -1.0628407,
          -1.12022388, -0.92457521, -0.580697298, 4.26223755, 6.11010265,
          7.51665354, 4.69041729, 1.85015607, 1.36930585, -0.861640036,
          -0.861640036, 1.36930597, 1.76270902, 1.68325067, 1.48136675,
          -0.647883832, -0.675053179, -0.787221968, -0.87705797,
          -1.14017522, -1.12022388, -0.957427561, -0.580697298,
          4.26223755, 6.11010265, 6.11010742, 3.92792344, 1.72206819,
          -0.816496611, -0.924575269, -1.02643585, -0.787222087,
          -0.634380937, -0.607492685, -0.634380937, -0.647883832,
          -0.675053179, -0.772801757, -0.991342366, -1.12022388,
          -1.12022388, -0.974243879, -0.513552189, 4.69041634,
          6.11011028, 6.11010742, 3.24037004, -0.634380937, -0.974243939,
          -1.20283353, -1.29399371, -0.991342366, -0.730296552,
          -0.594088554, -0.580697358, -0.594088554, -0.730296552,
          -0.831370175, -1.0628407, -1.20283377, -1.20283353,
          -0.974243879, -0.499999732, 4.69041634, 6.11011028, 5.26783276,
          3.43187857, 1.48136652, -1.0628407, -1.36930609, -1.61051321,
          -1.39596522, -0.846414685, -0.661437392, -0.647883832,
          -0.688737631, -0.924575269, -1.10069847, -1.24721849,
          -1.27029026, -1.20283377, -0.90851301, -0.402014673,
          6.11011028, 6.11011028, 4.69042206, 3.65718246, 1.57634044,
          -1.08157873, -1.45193338, -1.80534112, -1.72206807,
          -1.24721861, -0.95742768, -0.957427621, -1.04446638,
          -1.22474504, -1.61051321, -1.54348791, -1.45193326,
          -1.22474492, -0.801784337, 2.58198667, 5.26783276, 6.11011028,
          6.11010981, 4.26223516, 1.89736688, 1.04446638, -1.36930609,
          -1.80534172, -1.80534172, -1.6461091, -1.36930597, -1.48136663,
          -1.7627089, -1.8053416, -2.11569953, -1.89736629, -1.51185739,
          -1.16057646, 1.57634044, 2.48746586, 5.26783276, 10.6770639,
          6.11010981, 5.26783323, 2.17945027, 1.57634044, 1.08157861,
          0.661437452, -1.48136663, -1.61051309, -1.6832509, -1.99999976,
          -2.32139897, -2.17944956, -2.48746705, -1.68325055,
          -1.20283353, 1.3434577, 1.85015678, 2.6859448, 5.26783276,
          7.51665354, 6.1101079, 7.51665354, 4.26223373, 2.17945004,
          1.76270878, 1.08157873, 0.816496551, 0.730296493, 0.620920777,
          0.553911746, 0.458831549, 0.540495157, 0.716350555,
          0.957427502, 1.39596534, 1.64610898, 2.11569953, 3.65718246,
          7.51665354, 10.6770639, 7.51665354, 7.51665354, 10.6770639,
          4.26223326, 3.07482171, 2.80109739, 2.17944908, 1.64610958,
          1.34345758, 1.29399371, 1.27029037, 1.36930597, 1.76270878,
          2.17944932, 2.6859448, 3.24037075, 7.51665354, 7.51665354,
          10.6770639, 10.6770639, 7.51665354, 7.51665354, 10.6770639,
          7.51665354, 4.69041824, 3.92792368, 3.43187308, 3.07482219,
          2.8010993, 2.58198881, 2.2478044, 2.40098071, 2.80109477,
          3.24037051, 5.26783276, 10.6770639, 10.6770639, 10.6770639,
          10.6770639, 10.6770639 ]
      - [ 0., -0.0936584473, -0.133038118, -0.163663626, -0.189831808,
          -0.29138571, -0.416496634, -0.486373484, -0.540495157,
          -0.567308962, -0.540495157, -0.472656369, -0.341327995,
          -0.25458765, -0.189831778, -0.189831778, -0.133038118,
          -0.0936584473, -0.0936584473, -0.0936584473, -0.0936584473,
          -0.0936584473, -0.163663447, -0.273434192, -0.372309178,
          1.99999881, 1.6461091, 1.48136687, 1.18145382, 1.00873435,
          0.861640036, 1.0444665, -0.758513689, -0.472656459,
          -0.341328233, -0.325221509, -0.189831659, -0.0936584473,
          -0.0936584473, -0.0936584473, -0.163663581, -0.189831764,
          -0.325221479, -0.527046323, -0.688737631, 1.08157873,
          0.816496551, 0.67505312, 0.499999523, 0.47265631, 0.372309059,
          0.402014732, -1.99999917, -1.39596522, -0.846414685,
          -0.527046323, -0.387298137, -0.234618485, -0.0936584473,
          -0.133038118, -0.189831764, -0.25458768, -0.472656339,
          -0.716350555, -1.02643597, -1.45193315, -1.85015595,
          -2.2478044, -2.6859436, -2.80109644, 0.341328233, 0.308606595,
          -3.24037242, -2.11569953, -1.34345758, -0.940875351,
          -0.499999702, -0.25458768, -0.0936584473, -0.133038118,
          -0.213200822, -0.29138574, -0.620920539, -0.974243999,
          -1.45193315, -1.85015583, -2.2478044, -2.11569953, -1.94721866,
          -1.76270962, 0.540495157, 0.430775076, -2.58198881,
          -2.32139897, -1.45193326, -1.16057646, -0.744348109,
          -0.341328323, -0.133038118, -0.0936584473, -0.234618559,
          -0.37230891, -0.716350555, -1.18145382, -1.51185739,
          -1.85015607, -1.57634044, -1.54348791, -1.24721873, 1.00873435,
          0.991342425, 0.87705791, 0.675053179, -1.85015607, -1.36930609,
          -1.1814537, -0.801784337, -0.444877952, -0.133038118,
          -0.133038118, -0.273434192, -0.402014762, -0.772801816,
          -1.24721885, -1.51185739, -1.42348611, -1.12022412,
          -0.957427502, 1.39596522, 1.45193338, 1.42348599, 1.31836927,
          1.10069847, -1.45193326, -1.22474492, -1.0444665, -0.846414685,
          -0.486373216, -0.133038118, -0.133038118, -0.189831764,
          -0.37230888, -0.787222087, -1.18145382, -1.36930609,
          -1.24721873, -0.89267844, 1.36930597, 1.51185715, 1.54348791,
          1.68325114, 1.51185703, 1.29399383, 0.957427561, -1.12022388,
          -1.0444665, -0.861640036, -0.472656488, -0.213200882,
          -0.0936584473, -0.189831808, -0.25458768, -0.801784337,
          -1.10069859, -1.16057646, -1.14017534, 1.34345758, 1.80534172,
          1.72206831, 1.72206819, 1.72206819, 1.6832509, 1.39596534,
          1.120224, -0.974243999, -0.892678499, -0.801784337,
          -0.458831638, -0.213200867, -0.0936584473, -0.163663432,
          -0.25458768, -0.744348109, -1.0444665, -1.0444665, -1.00873435,
          1.27029014, 1.80534172, 1.99999881, 1.72206819, 1.72206807,
          1.6832509, 1.31836927, 1.18145394, -0.892678499, -0.861640036,
          -0.772801757, -0.444877982, -0.213200778, -0.0936584473,
          -0.163663432, -0.234618545, -0.758513868, -1.0444665,
          -1.0444665, -1.02643585, 1.20283353, 1.54348779, 1.54348779,
          1.39596522, 1.42348623, 1.31836903, 1.20283353, 1.00873435,
          -0.87705791, -0.846414685, -0.772801757, -0.416496634,
          -0.189831749, -0.0936584473, -0.163663432, -0.25458768,
          -0.716350496, -1.0444665, -1.0628407, -1.20283353, 1.02643573,
          1.31836915, 1.27029014, 1.18145382, 1.14017522, 1.02643573,
          0.974244237, 0.90851295, -1.00873435, -0.846414685,
          -0.716350555, -0.387298107, -0.189831749, -0.133038118,
          -0.133038118, -0.234618559, -0.67505312, -1.02643597,
          -1.08157873, -1.24721873, 0.974244297, 1.16057646, 1.18145382,
          1.14017534, 1.00873435, 0.877058029, 0.831370175, 0.801783442,
          -1.14017522, -0.957427561, -0.716350555, -0.387298107,
          -0.189831749, -0.0936584473, -0.133038118, -0.25458768,
          -0.661437511, -0.991342366, -1.10069859, -1.29399371,
          -1.0444665, 1.0628407, 1.0444665, 1.0444665, 0.787222087,
          0.744348109, 0.772801757, 0.801783502, -1.24721861,
          -0.991342366, -0.647883832, -0.387298107, -0.163663462,
          -0.0936584473, -0.133038118, -0.234618485, -0.634380937,
          -0.92457521, -1.12022376, -1.29399371, -1.120224, 1.08157873,
          1.16057634, 1.120224, 0.940875351, 0.877058029, 0.661437392,
          0.702499628, -1.27029026, -0.991342366, -0.772801757,
          -0.416496664, -0.163663462, -0.0936584473, -0.133038118,
          -0.234618425, -0.607492745, -0.940875351, -1.14017498,
          -1.29399371, -1.0444665, -0.831370115, 1.20283353, 1.02643573,
          1.02643573, 0.90851301, 0.787222087, 0.688737631, -1.18145382,
          -1.08157873, -0.801784217, -0.372309029, -0.163663462,
          -0.0936584473, -0.133038118, -0.213200837, -0.580697358,
          -0.892678559, -1.08157873, -1.20283365, -1.00873435,
          -0.716350496, 1.18145394, 1.0444665, 1.00873435, 0.90851301,
          0.846414685, 0.758513868, -1.22474492, -1.08157873,
          -0.846414685, -0.472656369, -0.163663462, -0.0936584473,
          -0.133038118, -0.213200837, -0.580697358, -0.846414685,
          -0.991342366, -1.0628407, -0.801784337, -0.730296552,
          1.36930597, 1.27029037, 1.16057646, 1.00873435, 0.92457521,
          0.892678618, -1.14017522, -1.10069859, -0.908513069,
          -0.472656369, -0.163663462, -0.163663462, -0.133038118,
          -0.189831734, -0.567308545, -0.758513808, -0.877058089,
          -0.940875351, -0.772801757, -0.634380937, -0.675053179,
          1.31836915, 1.2472198, 1.08157873, 1.0628407, 0.957427621,
          -1.12022388, -1.10069859, -0.92457521, -0.553911567,
          -0.213200733, -0.163663462, -0.0936584473, -0.189831704,
          -0.567308545, -0.730296552, -0.846414685, -0.861639977,
          -0.716350496, -0.594088495, -0.634380937, 1.39596522,
          1.31836915, 1.34345758, 1.20283353, 1.10069847, -1.0628407,
          -1.12022388, -0.92457521, -0.580697298, -0.234618574,
          -0.163663462, -0.133038118, -0.213200793, -0.540495038,
          -0.730296552, -0.861640036, -0.861640036, -0.730296552,
          -0.567308605, -0.594088495, 1.48136675, 1.54348791, 1.48136663,
          1.27029014, 1.14017534, 0.87705791, -1.12022388, -0.957427561,
          -0.580697298, -0.234618574, -0.163663462, -0.163663581,
          -0.25458762, -0.580697358, -0.816496611, -0.924575269,
          -1.02643585, -0.787222087, -0.634380937, -0.607492685,
          1.57634044, 1.54348791, 1.48136663, 1.29399359, 1.00873435,
          0.892678559, -1.12022388, -0.974243879, -0.513552189,
          -0.213200748, -0.163663656, -0.163663581, -0.308606684,
          -0.634380937, -0.974243939, -1.20283353, -1.29399371,
          -0.991342366, -0.730296552, -0.594088554, 1.72206819,
          1.6832509, 1.36930597, 1.20283353, 0.940875351, 0.831370354,
          -1.20283353, -0.974243879, -0.499999732, -0.213200748,
          -0.163663656, -0.189831808, -0.291385919, -0.67505306,
          -1.0628407, -1.36930609, -1.61051321, -1.39596522,
          -0.846414685, -0.661437392, 1.54348803, 1.45193338, 1.08157873,
          0.90851295, 0.801783383, 0.787222147, -1.20283377, -0.90851301,
          -0.402014673, -0.163663656, -0.163663656, -0.213201016,
          -0.273434192, -0.634380937, -1.08157873, -1.45193338,
          -1.80534112, -1.72206807, -1.24721861, -0.95742768, 1.0444665,
          0.957427561, 0.816496611, 0.620920777, 0.647883773,
          0.688737631, -1.22474492, -0.801784337, -0.387297958,
          -0.189831808, -0.163663656, -0.163663641, -0.234618455,
          -0.527046323, -0.957427561, -1.36930609, -1.80534172,
          -1.80534172, -1.6461091, -1.36930597, 0.675053179, 0.567308545,
          0.553911686, 0.472656369, 0.527046204, 0.661437571,
          -1.16057646, -0.634380937, -0.402014643, -0.189831808,
          -0.0936584473, -0.163663641, -0.189831823, -0.458831638,
          -0.634380937, -0.92457521, -1.51185715, -1.48136663,
          -1.61051309, -1.6832509, 0.499999881, 0.430775076, 0.458831549,
          0.402014822, 0.594088376, 0.831370175, -0.744348109,
          -0.540495276, -0.372309178, -0.189831808, -0.133038118,
          -0.163663596, -0.133038118, -0.234618366, -0.458831608,
          -0.567308545, -0.924575269, -1.22474492, -1.36930609,
          -1.61051309, -1.80534172, 0.458831549, 0.540495157,
          0.716350555, 0.957427502, -0.716350555, -0.607492626,
          -0.47265625, -0.273434192, -0.133038118, -0.0936584473,
          -0.133038118, -0.133038118, -0.0936584473, -0.234618336,
          -0.325221509, -0.357002616, -0.4588314, -0.607492864,
          -0.744348109, -0.772801816, -0.787222087, 1.36930597,
          1.76270878, -0.458831429, -0.372309178, -0.308606744,
          -0.133038118, -0.133038118, -0.0936584473, -0.0936584473,
          -0.133038118, -0.133038118, -0.0936584473, -0.133038118,
          -0.213200822, -0.25458765, -0.291385472, -0.325221539,
          -0.357002854, -0.387298316, -0.444877952, -0.416496634,
          -0.357002288, -0.308606714, -0.189831808, -0.0936584473,
          -0.0936584473, -0.0936584473, -0.0936584473, -0.0936584473 ]
      - [ 0., -0.0936584473, -0.133038118, -0.163663626, -0.189831808,
          -0.29138571, -0.416496634, -0.486373484, -0.540495157,
          -0.567308962, -0.540495157, -0.472656369, -0.341327995,
          -0.25458765, -0.189831778, -0.189831778, -0.133038118,
          -0.0936584473, -0.0936584473, -0.0936584473, -0.0936584473,
          -0.0936584473, -0.163663447, -0.273434192, -0.372309178,
          -0.499999702, -0.607492685, -0.675053239, -0.846414685,
          -0.991342366, -1.16057634, -0.957427621, -0.758513689,
          -0.472656459, -0.341328233, -0.325221509, -0.189831659,
          -0.0936584473, -0.0936584473, -0.0936584473, -0.163663581,
          -0.189831764, -0.325221479, -0.527046323, 1.45193338,
          1.08157873, -1.22474492, -1.48136663, -1.99999821, -2.11569929,
          -2.6859436, -2.48746657, 0.499999732, 0.716350615, 1.18145394,
          -0.527046323, -0.387298137, -0.234618485, -0.0936584473,
          -0.133038118, -0.189831764, -0.25458768, -0.472656339,
          1.39596534, 0.974244356, 0.688737571, 0.540495038, -2.2478044,
          -2.6859436, -2.80109644, -2.92973399, 0.308606595, 0.308606833,
          0.472656369, 0.744348109, 1.0628407, -0.499999702, -0.25458768,
          -0.0936584473, -0.133038118, -0.213200822, -0.29138574,
          1.61051273, 1.02643573, 0.688737571, 0.540495038, 0.444878012,
          0.472656369, -1.94721866, -1.76270962, 0.540495157,
          0.430775076, 0.387298405, 0.430775076, 0.688737631,
          0.861640155, -0.744348109, -0.341328323, -0.133038118,
          -0.0936584473, -0.234618559, -0.37230891, 1.39596534,
          0.846414685, 0.661437571, 0.540495098, 0.634380996,
          0.647883773, 0.801783562, 1.00873435, 0.991342425, 0.87705791,
          0.675053179, 0.540495098, 0.730296493, 0.846414626, 1.24722004,
          -0.444877952, -0.133038118, -0.133038118, -0.273434192,
          -0.402014762, 1.29399371, 0.801783621, 0.661437571,
          0.702499688, 0.892678618, 1.04446638, 1.39596522, 1.45193338,
          1.42348599, 1.31836927, 1.10069847, 0.688737631, 0.816496491,
          0.957427621, 1.18145394, -0.486373216, -0.133038118,
          -0.133038118, -0.189831764, -0.37230888, 1.27029037,
          0.846414685, 0.730296493, 0.801783562, 1.120224, 1.36930597,
          1.51185715, 1.54348791, 1.68325114, 1.51185703, 1.29399383,
          0.957427561, 0.892678499, 0.957427621, -0.861640036,
          -0.472656488, -0.213200882, -0.0936584473, -0.189831808,
          -0.25458768, 1.24722004, 0.90851301, 0.861640096, 0.87705797,
          1.34345758, 1.80534172, 1.72206831, 1.72206819, 1.72206819,
          1.6832509, 1.39596534, 1.120224, 1.02643573, -0.892678499,
          -0.801784337, -0.458831638, -0.213200867, -0.0936584473,
          -0.163663432, -0.25458768, 1.34345758, 0.957427621,
          0.957427621, 0.991342425, 1.27029014, 1.80534172, 1.99999881,
          1.72206819, 1.72206807, 1.6832509, 1.31836927, 1.18145394,
          -0.892678499, -0.861640036, -0.772801757, -0.444877982,
          -0.213200778, -0.0936584473, -0.163663432, -0.234618545,
          1.31836939, 0.957427621, 0.957427621, 0.974244297, 1.20283353,
          1.54348779, 1.54348779, 1.39596522, 1.42348623, 1.31836903,
          1.20283353, 1.00873435, -0.87705791, -0.846414685,
          -0.772801757, -0.416496634, -0.189831749, -0.0936584473,
          -0.163663432, -0.25458768, 1.39596522, 0.957427621,
          0.940875351, 0.831370175, 1.02643573, 1.31836915, 1.27029014,
          1.18145382, 1.14017522, 1.02643573, 0.974244237, -1.10069847,
          -1.00873435, -0.846414685, -0.716350555, -0.387298107,
          -0.189831749, -0.133038118, -0.133038118, -0.234618559,
          1.48136663, 0.974244356, 0.924575329, 0.801783562, 0.974244297,
          1.16057646, 1.18145382, 1.14017534, 1.00873435, 0.877058029,
          -1.20283353, -1.24721861, -1.14017522, -0.957427561,
          -0.716350555, -0.387298107, -0.189831749, -0.0936584473,
          -0.133038118, -0.25458768, -0.661437511, 1.00873435,
          0.908513069, 0.772801816, 0.957427621, 1.0628407, 1.0444665,
          1.0444665, 0.787222087, 0.744348109, -1.29399359, -1.24721861,
          -1.24721861, -0.991342366, -0.647883832, -0.387298107,
          -0.163663462, -0.0936584473, -0.133038118, -0.234618485,
          -0.634380937, 1.08157861, 0.89267844, 0.772801816, 0.892678618,
          1.08157873, 1.16057634, 1.120224, 0.940875351, -1.14017534,
          -1.51185691, -1.42348599, -1.27029026, -0.991342366,
          -0.772801757, -0.416496664, -0.163663462, -0.0936584473,
          -0.133038118, -0.234618425, -0.607492745, 1.0628407,
          0.877057731, 0.772801816, 0.957427621, 1.20283341, 1.20283353,
          1.02643573, 1.02643573, -1.10069859, -1.27029014, -1.45193338,
          -1.18145382, -1.08157873, -0.801784217, -0.372309029,
          -0.163663462, -0.0936584473, -0.133038118, -0.213200837,
          -0.580697358, 1.12022412, 0.924575329, 0.831370294,
          0.991342425, 1.39596522, 1.18145394, 1.0444665, 1.00873435,
          -1.10069859, -1.18145394, -1.31836939, -1.22474492,
          -1.08157873, -0.846414685, -0.472656369, -0.163663462,
          -0.0936584473, -0.133038118, -0.213200837, -0.580697358,
          1.18145394, 1.00873435, 0.940875351, 1.24722004, 1.36930597,
          1.36930597, 1.27029037, 1.16057646, 1.00873435, -1.08157861,
          -1.120224, -1.14017522, -1.10069859, -0.908513069,
          -0.472656369, -0.163663462, -0.163663462, -0.133038118,
          -0.189831734, -0.567308545, 1.31836927, 1.14017546, 1.0628407,
          1.29399359, 1.57634044, 1.48136663, 1.31836915, 1.2472198,
          1.08157873, 1.0628407, -1.0444665, -1.12022388, -1.10069859,
          -0.92457521, -0.553911567, -0.213200733, -0.163663462,
          -0.0936584473, -0.189831704, -0.567308545, 1.36930585,
          1.18145394, 1.16057622, 1.39596522, 1.68325067, 1.57634044,
          1.39596522, 1.31836915, 1.34345758, 1.20283353, -0.908513129,
          -1.0628407, -1.12022388, -0.92457521, -0.580697298,
          -0.234618574, -0.163663462, -0.133038118, -0.213200793,
          -0.540495038, 1.36930585, 1.16057634, 1.16057634, 1.36930597,
          1.76270902, 1.68325067, 1.48136675, 1.54348791, 1.48136663,
          1.27029014, 1.14017534, -1.14017522, -1.12022388, -0.957427561,
          -0.580697298, -0.234618574, -0.163663462, -0.163663581,
          -0.25458762, -0.580697358, 1.22474492, 1.08157873, 0.974244297,
          1.27029037, 1.57634044, 1.6461091, 1.57634044, 1.54348791,
          1.48136663, 1.29399359, 1.00873435, 0.892678559, -1.12022388,
          -0.974243879, -0.513552189, -0.213200748, -0.163663656,
          -0.163663581, -0.308606684, -0.634380937, 1.02643573,
          0.831370234, 0.772801816, 1.00873435, 1.36930597, 1.6832509,
          1.72206819, 1.6832509, 1.36930597, 1.20283353, 0.940875351,
          0.831370354, 0.831370234, -0.974243879, -0.499999732,
          -0.213200748, -0.163663656, -0.189831808, -0.291385919,
          -0.67505306, 0.940875351, 0.730296493, 0.620920777,
          0.716350615, 1.18145394, 1.51185703, 1.54348803, 1.45193338,
          1.08157873, 0.90851295, 0.801783383, 0.787222147, 0.831370354,
          1.10069835, -0.402014673, -0.163663656, -0.163663656,
          -0.213201016, -0.273434192, -0.634380937, 0.924575329,
          0.688737631, 0.553911567, 0.580697298, 0.801783502, 1.0444665,
          1.0444665, 0.957427561, 0.816496611, 0.620920777, 0.647883773,
          0.688737631, 0.816496491, 1.24722004, -0.387297958,
          -0.189831808, -0.163663656, -0.163663641, -0.234618455,
          -0.527046323, 1.04446638, 0.730296493, 0.553911746,
          0.553911746, 0.607492685, 0.730296493, 0.675053179,
          0.567308545, 0.553911686, 0.472656369, 0.527046204,
          0.661437571, 0.861640096, 1.57634044, 2.48746586, -0.189831808,
          -0.0936584473, -0.163663641, -0.189831823, -0.458831638,
          -0.634380937, 1.08157861, 0.661437452, 0.675053179,
          0.620920777, 0.594088554, 0.499999881, 0.430775076,
          0.458831549, 0.402014822, 0.594088376, 0.831370175, 1.3434577,
          1.85015678, -0.372309178, -0.189831808, -0.133038118,
          -0.163663596, -0.133038118, -0.234618366, -0.458831608,
          -0.567308545, -0.924575269, -1.22474492, -1.36930609,
          -1.61051309, -1.80534172, -2.17944956, -1.85015619, -1.3959651,
          0.957427502, 1.39596534, 1.64610898, 2.11569953, -0.273434192,
          -0.133038118, -0.0936584473, -0.133038118, -0.133038118,
          -0.0936584473, -0.234618336, -0.325221509, -0.357002616,
          -0.4588314, -0.607492864, -0.744348109, -0.772801816,
          -0.787222087, -0.730296552, -0.567308545, -0.458831429,
          -0.372309178, -0.308606744, -0.133038118, -0.133038118,
          -0.0936584473, -0.0936584473, -0.133038118, -0.133038118,
          -0.0936584473, -0.133038118, -0.213200822, -0.25458765,
          -0.291385472, -0.325221539, -0.357002854, -0.387298316,
          -0.444877952, -0.416496634, -0.357002288, -0.308606714,
          -0.189831808, -0.0936584473, -0.0936584473, -0.0936584473,
          -0.0936584473, -0.0936584473 ]
      - [ 0., -0.0936584473, -0.133038118, -0.163663626, -0.189831808,
          -0.29138571, -0.416496634, -0.486373484, -0.540495157,
          -0.567308962, -0.540495157, -0.472656369, -0.341327995,
          -0.25458765, -0.189831778, -0.189831778, -0.133038118,
          -0.0936584473, -0.0936584473, -0.0936584473, -0.0936584473,
          -0.0936584473, -0.163663447, -0.273434192, -0.372309178,
          -0.499999702, -0.607492685, -0.675053239, -0.846414685,
          -0.991342366, -1.16057634, -0.957427621, -0.758513689,
          -0.472656459, -0.341328233, -0.325221509, -0.189831659,
          -0.0936584473, -0.0936584473, -0.0936584473, -0.163663581,
          -0.189831764, -0.325221479, -0.527046323, -0.688737631,
          -0.924575269, -1.22474492, 0.67505312, 0.499999523, 0.47265631,
          0.372309059, 0.402014732, 0.499999732, 0.716350615,
          -0.846414685, -0.527046323, -0.387298137, -0.234618485,
          -0.0936584473, -0.133038118, -0.189831764, -0.25458768,
          -0.472656339, -0.716350555, -1.02643597, 0.688737571,
          0.540495038, 0.444877952, 0.372309059, 0.357002527,
          0.341328233, 0.308606595, 0.308606833, 0.472656369,
          0.744348109, 1.0628407, 1.99999881, -0.25458768, -0.0936584473,
          -0.133038118, -0.213200822, -0.29138574, -0.620920539,
          -0.974243999, 0.688737571, 0.540495038, 0.444878012,
          0.472656369, 0.513552189, 0.567308784, 0.540495157,
          0.430775076, 0.387298405, 0.430775076, 0.688737631,
          0.861640155, 1.34345758, -0.341328323, -0.133038118,
          -0.0936584473, -0.234618559, -0.37230891, -0.716350555,
          -1.18145382, 0.661437571, 0.540495098, 0.634380996,
          0.647883773, 0.801783562, 1.00873435, 0.991342425, 0.87705791,
          0.675053179, 0.540495098, 0.730296493, 0.846414626, 1.24722004,
          -0.444877952, -0.133038118, -0.133038118, -0.273434192,
          -0.402014762, -0.772801816, -1.24721885, 0.661437571,
          0.702499688, 0.892678618, 1.04446638, 1.39596522, 1.45193338,
          1.42348599, 1.31836927, 1.10069847, 0.688737631, 0.816496491,
          0.957427621, 1.18145394, -0.486373216, -0.133038118,
          -0.133038118, -0.189831764, -0.37230888, -0.787222087,
          -1.18145382, 0.730296493, 0.801783562, 1.120224, 1.36930597,
          1.51185715, 1.54348791, 1.68325114, 1.51185703, 1.29399383,
          0.957427561, 0.892678499, 0.957427621, 1.16057634,
          -0.472656488, -0.213200882, -0.0936584473, -0.189831808,
          -0.25458768, -0.801784337, -1.10069859, -1.16057646,
          0.87705797, 1.34345758, 1.80534172, 1.72206831, 1.72206819,
          1.72206819, 1.6832509, 1.39596534, 1.120224, 1.02643573,
          1.120224, 1.24722004, -0.458831638, -0.213200867,
          -0.0936584473, -0.163663432, -0.25458768, -0.744348109,
          -1.0444665, -1.0444665, -1.00873435, 1.27029014, 1.80534172,
          1.99999881, -0.580697358, -0.580697298, -0.594088554,
          1.31836927, 1.18145394, 1.120224, 1.16057634, 1.29399359,
          -0.444877982, -0.213200778, -0.0936584473, -0.163663432,
          -0.234618545, -0.758513868, -1.0444665, -1.0444665,
          -1.02643585, -0.831370175, -0.647883773, -0.647883773,
          -0.716350496, -0.702499688, -0.758513689, -0.831370234,
          1.00873435, 1.14017534, 1.18145394, 1.29399359, -0.416496634,
          -0.189831749, -0.0936584473, -0.163663432, -0.25458768,
          -0.716350496, -1.0444665, -1.0628407, -1.20283353,
          -0.974243999, -0.758513749, -0.787221968, -0.846414685,
          -0.87705785, -0.974243999, -1.02643585, 0.90851295,
          0.991342425, 1.18145394, 1.39596534, -0.387298107,
          -0.189831749, -0.133038118, -0.133038118, -0.234618559,
          -0.67505312, -1.02643597, -1.08157873, -1.24721873,
          -1.02643585, -0.861640155, -0.846414685, -0.87705791,
          -0.991342366, -1.14017534, -1.20283353, 0.801783442,
          0.87705791, 1.04446638, 1.39596534, -0.387298107, -0.189831749,
          -0.0936584473, -0.133038118, -0.25458768, -0.661437511,
          -0.991342366, -1.10069859, -1.29399371, -1.0444665,
          -0.940875351, -0.957427621, -0.957427621, -1.27029014,
          -1.34345758, 0.772801757, 0.801783502, 0.801783502, 1.00873435,
          1.54348791, -0.387298107, -0.163663462, -0.0936584473,
          -0.133038118, -0.234618485, -0.634380937, -0.92457521,
          -1.12022376, -1.29399371, -1.120224, -0.924575269,
          -0.861640036, -0.892678499, -1.0628407, -1.14017534,
          0.661437392, 0.702499628, 0.787222147, 1.00873435, 1.29399359,
          -0.416496664, -0.163663462, -0.0936584473, -0.133038118,
          -0.234618425, -0.607492745, -0.940875351, -1.14017498,
          -1.29399371, -1.0444665, -0.831370115, -0.831370234,
          -0.974243999, -0.974243999, 0.90851301, 0.787222087,
          0.688737631, 0.846414685, 0.924575329, 1.2472198, -0.372309029,
          -0.163663462, -0.0936584473, -0.133038118, -0.213200837,
          -0.580697358, -0.892678559, -1.08157873, -1.20283365,
          -1.00873435, -0.716350496, -0.846414685, -0.957427621,
          1.00873435, 0.90851301, 0.846414685, 0.758513868, 0.816496491,
          0.924575329, 1.18145394, -0.472656369, -0.163663462,
          -0.0936584473, -0.133038118, -0.213200837, -0.580697358,
          -0.846414685, -0.991342366, -1.0628407, -0.801784337,
          -0.730296552, -0.730296552, 1.27029037, 1.16057646, 1.00873435,
          0.92457521, 0.892678618, 0.87705791, 0.90851301, 1.10069847,
          -0.472656369, -0.163663462, -0.163663462, -0.133038118,
          -0.189831734, -0.567308545, -0.758513808, -0.877058089,
          -0.940875351, -0.772801757, -0.634380937, 1.48136663,
          1.31836915, 1.2472198, 1.08157873, 1.0628407, 0.957427621,
          0.892678499, 0.90851301, -0.92457521, -0.553911567,
          -0.213200733, -0.163663462, -0.0936584473, -0.189831704,
          -0.567308545, -0.730296552, -0.846414685, -0.861639977,
          -0.716350496, -0.594088495, 1.57634044, 1.39596522, 1.31836915,
          1.34345758, 1.20283353, 1.10069847, 0.940875351, -1.12022388,
          -0.92457521, -0.580697298, -0.234618574, -0.163663462,
          -0.133038118, -0.213200793, -0.540495038, -0.730296552,
          -0.861640036, -0.861640036, -0.730296552, 1.76270902,
          1.68325067, 1.48136675, 1.54348791, 1.48136663, 1.27029014,
          1.14017534, 0.87705791, -1.12022388, -0.957427561,
          -0.580697298, -0.234618574, -0.163663462, -0.163663581,
          -0.25458762, -0.580697358, -0.816496611, -0.924575269,
          -1.02643585, 1.27029037, 1.57634044, 1.6461091, 1.57634044,
          1.54348791, 1.48136663, 1.29399359, 1.00873435, 0.892678559,
          -1.12022388, -0.974243879, -0.513552189, -0.213200748,
          -0.163663656, -0.163663581, -0.308606684, -0.634380937,
          -0.974243939, -1.20283353, 0.772801816, 1.00873435, 1.36930597,
          1.6832509, 1.72206819, 1.6832509, 1.36930597, 1.20283353,
          0.940875351, 0.831370354, 0.831370234, -0.974243879,
          -0.499999732, -0.213200748, -0.163663656, -0.189831808,
          -0.291385919, -0.67505306, -1.0628407, 0.730296493,
          0.620920777, 0.716350615, 1.18145394, 1.51185703, 1.54348803,
          1.45193338, 1.08157873, 0.90851295, 0.801783383, 0.787222147,
          0.831370354, 1.10069835, -0.402014673, -0.163663656,
          -0.163663656, -0.213201016, -0.273434192, -0.634380937,
          -1.08157873, 0.688737631, 0.553911567, 0.580697298,
          0.801783502, 1.0444665, 1.0444665, 0.957427561, 0.816496611,
          0.620920777, 0.647883773, 0.688737631, 0.816496491, 1.24722004,
          -0.387297958, -0.189831808, -0.163663656, -0.163663641,
          -0.234618455, -0.527046323, -0.957427561, 0.730296493,
          0.553911746, 0.553911746, 0.607492685, 0.730296493,
          0.675053179, 0.567308545, 0.553911686, 0.472656369,
          0.527046204, 0.661437571, 0.861640096, 1.57634044,
          -0.402014643, -0.189831808, -0.0936584473, -0.163663641,
          -0.189831823, -0.458831638, -0.634380937, -0.92457521,
          0.661437452, 0.675053179, 0.620920777, 0.594088554,
          0.499999881, 0.430775076, 0.458831549, 0.402014822,
          0.594088376, 0.831370175, 1.3434577, 1.85015678, -0.372309178,
          -0.189831808, -0.133038118, -0.163663596, -0.133038118,
          -0.234618366, -0.458831608, -0.567308545, -0.924575269,
          0.816496551, 0.730296493, 0.620920777, 0.553911746,
          0.458831549, 0.540495157, 0.716350555, 0.957427502, 1.39596534,
          1.64610898, 2.11569953, -0.273434192, -0.133038118,
          -0.0936584473, -0.133038118, -0.133038118, -0.0936584473,
          -0.234618336, -0.325221509, -0.357002616, -0.4588314,
          -0.607492864, 1.34345758, 1.29399371, 1.27029037, 1.36930597,
          1.76270878, 2.17944932, 2.6859448, 3.24037075, -0.133038118,
          -0.133038118, -0.0936584473, -0.0936584473, -0.133038118,
          -0.133038118, -0.0936584473, -0.133038118, -0.213200822,
          -0.25458765, -0.291385472, -0.325221539, -0.357002854,
          -0.387298316, -0.444877952, -0.416496634, -0.357002288,
          -0.308606714, -0.189831808, -0.0936584473, -0.0936584473,
          -0.0936584473, -0.0936584473, -0.0936584473 ]
      - [ 0., -0.0936584473, -0.133038118, -0.163663626, -0.189831808,
          -0.29138571, -0.416496634, -0.486373484, -0.540495157,
          -0.567308962, -0.540495157, -0.472656369, -0.341327995,
          -0.25458765, -0.189831778, -0.189831778, -0.133038118,
          -0.0936584473, -0.0936584473, -0.0936584473, -0.0936584473,
          -0.0936584473, -0.163663447, -0.273434192, -0.372309178,
          -0.499999702, -0.607492685, -0.675053239, -0.846414685,
          -0.991342366, -1.16057634, -0.957427621, 1.31836903,
          2.11570024, -0.341328233, -0.325221509, -0.189831659,
          -0.0936584473, -0.0936584473, -0.0936584473, -0.163663581,
          -0.189831764, -0.325221479, -0.527046323, -0.688737631,
          -0.924575269, -1.22474492, -1.48136663, -1.99999821,
          -2.11569929, 0.372309059, 0.402014732, 0.499999732,
          0.716350615, 1.18145394, 1.89736676, 2.58198786, -0.234618485,
          -0.0936584473, -0.133038118, -0.189831764, -0.25458768,
          2.11569977, 1.39596534, 0.974244356, -1.45193315, -1.85015595,
          -2.2478044, -2.6859436, 0.357002527, 0.341328233, 0.308606595,
          0.308606833, 0.472656369, 0.744348109, 1.0628407, 1.99999881,
          -0.25458768, -0.0936584473, -0.133038118, -0.213200822,
          -0.29138574, 1.61051273, 1.02643573, 0.688737571, 0.540495038,
          -2.2478044, -2.11569953, 0.513552189, 0.567308784, 0.540495157,
          0.430775076, 0.387298405, 0.430775076, 0.688737631,
          0.861640155, 1.34345758, -0.341328323, -0.133038118,
          -0.0936584473, -0.234618559, -0.37230891, 1.39596534,
          0.846414685, 0.661437571, 0.540495098, 0.634380996,
          0.647883773, 0.801783562, 1.00873435, 0.991342425, 0.87705791,
          0.675053179, 0.540495098, 0.730296493, 0.846414626, 1.24722004,
          -0.444877952, -0.133038118, -0.133038118, -0.273434192,
          -0.402014762, 1.29399371, 0.801783621, 0.661437571,
          0.702499688, 0.892678618, 1.04446638, 1.39596522, 1.45193338,
          1.42348599, 1.31836927, 1.10069847, 0.688737631, 0.816496491,
          0.957427621, 1.18145394, -0.486373216, -0.133038118,
          -0.133038118, -0.189831764, -0.37230888, 1.27029037,
          0.846414685, 0.730296493, 0.801783562, 1.120224, 1.36930597,
          1.51185715, 1.54348791, 1.68325114, 1.51185703, 1.29399383,
          0.957427561, 0.892678499, 0.957427621, 1.16057634,
          -0.472656488, -0.213200882, -0.0936584473, -0.189831808,
          -0.25458768, 1.24722004, 0.90851301, 0.861640096, 0.87705797,
          1.34345758, 1.80534172, -0.580697417, -0.580697358, 1.72206819,
          1.6832509, 1.39596534, 1.120224, 1.02643573, 1.120224,
          1.24722004, -0.458831638, -0.213200867, -0.0936584473,
          -0.163663432, -0.25458768, 1.34345758, 0.957427621,
          0.957427621, 0.991342425, 1.27029014, -0.553911626,
          -0.499999702, -0.580697358, -0.580697298, -0.594088554,
          -0.758513808, -0.846414685, -0.892678499, 1.16057634,
          1.29399359, -0.444877982, -0.213200778, -0.0936584473,
          -0.163663432, -0.234618545, 1.31836939, 0.957427621,
          0.957427621, 0.974244297, 1.20283353, -0.647883773,
          -0.647883773, -0.716350496, -0.702499688, -0.758513689,
          -0.831370234, -0.991342366, -0.87705791, -0.846414685,
          1.29399359, -0.416496634, -0.189831749, -0.0936584473,
          -0.163663432, -0.25458768, 1.39596522, 0.957427621,
          0.940875351, 0.831370175, 1.02643573, 1.31836915, -0.787221968,
          -0.846414685, -0.87705785, -0.974243999, -1.02643585,
          -1.10069847, -1.00873435, -0.846414685, 1.39596534,
          -0.387298107, -0.189831749, -0.133038118, -0.133038118,
          -0.234618559, 1.48136663, 0.974244356, 0.924575329,
          0.801783562, 0.974244297, 1.16057646, -0.846414685,
          -0.87705791, -0.991342366, -1.14017534, -1.20283353,
          -1.24721861, -1.14017522, 1.04446638, 1.39596534, -0.387298107,
          -0.189831749, -0.0936584473, -0.133038118, -0.25458768,
          1.51185727, 1.00873435, 0.908513069, 0.772801816, 0.957427621,
          -0.940875351, -0.957427621, -0.957427621, -1.27029014,
          -1.34345758, -1.29399359, -1.24721861, -1.24721861, 1.00873435,
          1.54348791, -0.387298107, -0.163663462, -0.0936584473,
          -0.133038118, -0.234618485, 1.57634044, 1.08157861, 0.89267844,
          0.772801816, 0.892678618, -0.924575269, -0.861640036,
          -0.892678499, -1.0628407, -1.14017534, -1.51185691,
          -1.42348599, -1.27029026, 1.00873435, 1.29399359, -0.416496664,
          -0.163663462, -0.0936584473, -0.133038118, -0.234618425,
          1.64610922, 1.0628407, 0.877057731, 0.772801816, -1.0444665,
          -0.831370115, -0.831370234, -0.974243999, -0.974243999,
          -1.10069859, -1.27029014, -1.45193338, -1.18145382,
          0.924575329, 1.2472198, -0.372309029, -0.163663462,
          -0.0936584473, -0.133038118, -0.213200837, 1.72206819,
          1.12022412, 0.924575329, 0.831370294, -1.00873435,
          -0.716350496, -0.846414685, -0.957427621, -0.991342366,
          -1.10069859, -1.18145394, -1.31836939, 0.816496491,
          0.924575329, 1.18145394, -0.472656369, -0.163663462,
          -0.0936584473, -0.133038118, -0.213200837, 1.72206819,
          1.18145394, 1.00873435, -1.0628407, -0.801784337, -0.730296552,
          -0.730296552, -0.787222087, -0.861640096, -0.991342366,
          -1.08157861, -1.120224, 0.87705791, 0.90851301, 1.10069847,
          -0.472656369, -0.163663462, -0.163663462, -0.133038118,
          -0.189831734, 1.76270878, 1.31836927, -0.877058089,
          -0.940875351, -0.772801757, -0.634380937, -0.675053179,
          -0.758513749, -0.801784217, -0.924575269, -0.940875351,
          -1.0444665, 0.892678499, 0.90851301, 1.08157861, -0.553911567,
          -0.213200733, -0.163663462, -0.0936584473, -0.189831704,
          1.76270878, -0.730296552, -0.846414685, -0.861639977,
          -0.716350496, -0.594088495, -0.634380937, -0.716350496,
          -0.758513749, -0.744348109, -0.831370234, -0.908513129,
          0.940875351, 0.892678559, 1.08157861, -0.580697298,
          -0.234618574, -0.163663462, -0.133038118, -0.213200793,
          -0.540495038, -0.730296552, -0.861640036, -0.861640036,
          -0.730296552, -0.567308605, -0.594088495, -0.675053179,
          -0.647883832, -0.675053179, -0.787221968, 1.14017534,
          0.87705791, 0.892678559, 1.04446638, -0.580697298,
          -0.234618574, -0.163663462, -0.163663581, -0.25458762,
          -0.580697358, -0.816496611, -0.924575269, -1.02643585,
          -0.787222087, -0.634380937, -0.607492685, -0.634380937,
          -0.647883832, -0.675053179, -0.772801757, 1.00873435,
          0.892678559, 0.892678559, 1.02643561, -0.513552189,
          -0.213200748, -0.163663656, -0.163663581, -0.308606684,
          1.57634044, 1.02643573, -1.20283353, -1.29399371, -0.991342366,
          -0.730296552, -0.594088554, -0.580697358, -0.594088554,
          -0.730296552, -0.831370175, 0.940875351, 0.831370354,
          0.831370234, 1.02643561, -0.499999732, -0.213200748,
          -0.163663656, -0.189831808, -0.291385919, 1.48136652,
          0.940875351, 0.730296493, -1.61051321, -1.39596522,
          -0.846414685, -0.661437392, -0.647883832, -0.688737631,
          -0.924575269, 0.90851295, 0.801783383, 0.787222147,
          0.831370354, 1.10069835, -0.402014673, -0.163663656,
          -0.163663656, -0.213201016, -0.273434192, 1.57634044,
          0.924575329, 0.688737631, 0.553911567, 0.580697298,
          -1.24721861, -0.95742768, -0.957427621, -1.04446638,
          -1.22474504, 0.620920777, 0.647883773, 0.688737631,
          0.816496491, 1.24722004, -0.387297958, -0.189831808,
          -0.163663656, -0.163663641, -0.234618455, 1.89736688,
          1.04446638, 0.730296493, 0.553911746, 0.553911746, -1.6461091,
          -1.36930597, -1.48136663, -1.7627089, -1.8053416, 0.472656369,
          0.527046204, 0.661437571, 0.861640096, 1.57634044,
          -0.402014643, -0.189831808, -0.0936584473, -0.163663641,
          -0.189831823, 2.17945027, 1.57634044, 1.08157861, 0.661437452,
          0.675053179, -1.61051309, -1.6832509, -1.99999976, -2.32139897,
          -2.17944956, 0.402014822, 0.594088376, 0.831370175, 1.3434577,
          1.85015678, -0.372309178, -0.189831808, -0.133038118,
          -0.163663596, -0.133038118, 4.26223373, 2.17945004, 1.76270878,
          1.08157873, 0.816496551, -1.36930609, -1.61051309, -1.80534172,
          -2.17944956, -1.85015619, -1.3959651, 0.957427502, 1.39596534,
          1.64610898, 2.11569953, -0.273434192, -0.133038118,
          -0.0936584473, -0.133038118, -0.133038118, -0.0936584473,
          4.26223326, 3.07482171, -0.357002616, -0.4588314, -0.607492864,
          -0.744348109, -0.772801816, -0.787222087, -0.730296552,
          -0.567308545, -0.458831429, -0.372309178, -0.308606744,
          -0.133038118, -0.133038118, -0.0936584473, -0.0936584473,
          -0.133038118, -0.133038118, -0.0936584473, -0.133038118,
          -0.213200822, -0.25458765, -0.291385472, -0.325221539,
          -0.357002854, -0.387298316, -0.444877952, -0.416496634,
          -0.357002288, -0.308606714, -0.189831808, -0.0936584473,
          -0.0936584473, -0.0936584473, -0.0936584473, -0.0936584473 ]
      - [ 0., -0.0936584473, -0.133038118, -0.163663626, -0.189831808,
          -0.29138571, -0.416496634, -0.486373484, -0.540495157,
          -0.567308962, -0.540495157, -0.472656369, -0.341327995,
          -0.25458765, -0.189831778, -0.189831778, -0.133038118,
          -0.0936584473, -0.0936584473, -0.0936584473, -0.0936584473,
          -0.0936584473, -0.163663447, -0.273434192, -0.372309178,
          -0.499999702, -0.607492685, -0.675053239, -0.846414685,
          -0.991342366, -1.16057634, -0.957427621, -0.758513689,
          -0.472656459, -0.341328233, -0.325221509, -0.189831659,
          -0.0936584473, -0.0936584473, -0.0936584473, -0.163663581,
          -0.189831764, -0.325221479, -0.527046323, -0.688737631,
          -0.924575269, 0.816496551, 0.67505312, 0.499999523,
          -2.11569929, -2.6859436, -2.48746657, -1.99999917, -1.39596522,
          -0.846414685, -0.527046323, -0.387298137, -0.234618485,
          -0.0936584473, -0.133038118, -0.189831764, -0.25458768,
          -0.472656339, 1.39596534, 0.974244356, 0.688737571,
          0.540495038, 0.444877952, 0.372309059, 0.357002527,
          0.341328233, 0.308606595, -3.24037242, -2.11569953,
          -1.34345758, -0.940875351, -0.499999702, -0.25458768,
          -0.0936584473, -0.133038118, -0.213200822, -0.29138574,
          1.61051273, 1.02643573, 0.688737571, 0.540495038, 0.444878012,
          0.472656369, 0.513552189, 0.567308784, 0.540495157,
          0.430775076, 0.387298405, -2.32139897, -1.45193326,
          -1.16057646, -0.744348109, -0.341328323, -0.133038118,
          -0.0936584473, -0.234618559, -0.37230891, 1.39596534,
          0.846414685, 0.661437571, 0.540495098, 0.634380996,
          0.647883773, 0.801783562, 1.00873435, 0.991342425, 0.87705791,
          0.675053179, 0.540495098, -1.36930609, -1.1814537,
          -0.801784337, -0.444877952, -0.133038118, -0.133038118,
          -0.273434192, -0.402014762, 1.29399371, 0.801783621,
          0.661437571, 0.702499688, 0.892678618, 1.04446638, 1.39596522,
          1.45193338, 1.42348599, 1.31836927, 1.10069847, 0.688737631,
          -1.22474492, -1.0444665, -0.846414685, -0.486373216,
          -0.133038118, -0.133038118, -0.189831764, -0.37230888,
          1.27029037, 0.846414685, 0.730296493, 0.801783562, 1.120224,
          1.36930597, 1.51185715, 1.54348791, 1.68325114, 1.51185703,
          1.29399383, 0.957427561, 0.892678499, -1.0444665, -0.861640036,
          -0.472656488, -0.213200882, -0.0936584473, -0.189831808,
          -0.25458768, 1.24722004, 0.90851301, 0.861640096, 0.87705797,
          1.34345758, 1.80534172, 1.72206831, 1.72206819, 1.72206819,
          1.6832509, 1.39596534, 1.120224, 1.02643573, -0.892678499,
          -0.801784337, -0.458831638, -0.213200867, -0.0936584473,
          -0.163663432, -0.25458768, 1.34345758, 0.957427621,
          0.957427621, 0.991342425, 1.27029014, 1.80534172, 1.99999881,
          1.72206819, 1.72206807, 1.6832509, 1.31836927, 1.18145394,
          1.120224, -0.861640036, -0.772801757, -0.444877982,
          -0.213200778, -0.0936584473, -0.163663432, -0.234618545,
          1.31836939, 0.957427621, 0.957427621, 0.974244297, 1.20283353,
          -0.647883773, -0.647883773, 1.39596522, 1.42348623, 1.31836903,
          1.20283353, 1.00873435, 1.14017534, -0.846414685, -0.772801757,
          -0.416496634, -0.189831749, -0.0936584473, -0.163663432,
          -0.25458768, 1.39596522, 0.957427621, 0.940875351, 0.831370175,
          -0.974243999, -0.758513749, -0.787221968, 1.18145382,
          1.14017522, 1.02643573, 0.974244237, 0.90851295, 0.991342425,
          1.18145394, -0.716350555, -0.387298107, -0.189831749,
          -0.133038118, -0.133038118, -0.234618559, 1.48136663,
          0.974244356, 0.924575329, 0.801783562, -1.02643585,
          -0.861640155, -0.846414685, 1.14017534, 1.00873435,
          0.877058029, 0.831370175, 0.801783442, 0.87705791, 1.04446638,
          -0.716350555, -0.387298107, -0.189831749, -0.0936584473,
          -0.133038118, -0.25458768, 1.51185727, 1.00873435, 0.908513069,
          0.772801816, -1.0444665, -0.940875351, -0.957427621, 1.0444665,
          0.787222087, 0.744348109, 0.772801757, 0.801783502,
          0.801783502, 1.00873435, -0.647883832, -0.387298107,
          -0.163663462, -0.0936584473, -0.133038118, -0.234618485,
          1.57634044, 1.08157861, 0.89267844, 0.772801816, -1.120224,
          -0.924575269, -0.861640036, -0.892678499, 0.940875351,
          0.877058029, 0.661437392, 0.702499628, 0.787222147, 1.00873435,
          -0.772801757, -0.416496664, -0.163663462, -0.0936584473,
          -0.133038118, -0.234618425, 1.64610922, 1.0628407, 0.877057731,
          0.772801816, -1.0444665, -0.831370115, -0.831370234,
          -0.974243999, 1.02643573, 0.90851301, 0.787222087, 0.688737631,
          0.846414685, 0.924575329, -0.801784217, -0.372309029,
          -0.163663462, -0.0936584473, -0.133038118, -0.213200837,
          1.72206819, 1.12022412, 0.924575329, 0.831370294, -1.00873435,
          -0.716350496, -0.846414685, -0.957427621, 1.00873435,
          0.90851301, 0.846414685, 0.758513868, 0.816496491, 0.924575329,
          -0.846414685, -0.472656369, -0.163663462, -0.0936584473,
          -0.133038118, -0.213200837, 1.72206819, 1.18145394, 1.00873435,
          0.940875351, -0.801784337, -0.730296552, -0.730296552,
          -0.787222087, 1.16057646, 1.00873435, 0.92457521, 0.892678618,
          0.87705791, 0.90851301, -0.908513069, -0.472656369,
          -0.163663462, -0.163663462, -0.133038118, -0.189831734,
          1.76270878, 1.31836927, 1.14017546, 1.0628407, -0.772801757,
          -0.634380937, -0.675053179, -0.758513749, 1.2472198,
          1.08157873, 1.0628407, 0.957427621, 0.892678499, 0.90851301,
          -0.92457521, -0.553911567, -0.213200733, -0.163663462,
          -0.0936584473, -0.189831704, 1.76270878, 1.36930585,
          1.18145394, 1.16057622, -0.716350496, -0.594088495,
          -0.634380937, -0.716350496, 1.31836915, 1.34345758, 1.20283353,
          1.10069847, 0.940875351, 0.892678559, -0.92457521,
          -0.580697298, -0.234618574, -0.163663462, -0.133038118,
          -0.213200793, 1.85015607, 1.36930585, 1.16057634, 1.16057634,
          1.36930597, -0.567308605, -0.594088495, -0.675053179,
          1.54348791, 1.48136663, 1.27029014, 1.14017534, 0.87705791,
          0.892678559, -0.957427561, -0.580697298, -0.234618574,
          -0.163663462, -0.163663581, -0.25458762, 1.72206819,
          1.22474492, 1.08157873, 0.974244297, 1.27029037, -0.634380937,
          -0.607492685, 1.57634044, 1.54348791, 1.48136663, 1.29399359,
          1.00873435, 0.892678559, 0.892678559, -0.974243879,
          -0.513552189, -0.213200748, -0.163663656, -0.163663581,
          -0.308606684, 1.57634044, 1.02643573, 0.831370234, 0.772801816,
          1.00873435, 1.36930597, 1.6832509, 1.72206819, 1.6832509,
          1.36930597, 1.20283353, 0.940875351, 0.831370354, 0.831370234,
          -0.974243879, -0.499999732, -0.213200748, -0.163663656,
          -0.189831808, -0.291385919, 1.48136652, 0.940875351,
          0.730296493, 0.620920777, 0.716350615, 1.18145394, 1.51185703,
          1.54348803, 1.45193338, 1.08157873, 0.90851295, 0.801783383,
          0.787222147, 0.831370354, -0.90851301, -0.402014673,
          -0.163663656, -0.163663656, -0.213201016, -0.273434192,
          1.57634044, 0.924575329, 0.688737631, 0.553911567, 0.580697298,
          0.801783502, 1.0444665, 1.0444665, 0.957427561, 0.816496611,
          0.620920777, 0.647883773, 0.688737631, -1.22474492,
          -0.801784337, -0.387297958, -0.189831808, -0.163663656,
          -0.163663641, -0.234618455, 1.89736688, 1.04446638,
          0.730296493, 0.553911746, 0.553911746, 0.607492685,
          0.730296493, 0.675053179, 0.567308545, 0.553911686,
          0.472656369, 0.527046204, 0.661437571, -1.16057646,
          -0.634380937, -0.402014643, -0.189831808, -0.0936584473,
          -0.163663641, -0.189831823, 2.17945027, 1.57634044, 1.08157861,
          0.661437452, 0.675053179, 0.620920777, 0.594088554,
          0.499999881, 0.430775076, 0.458831549, 0.402014822,
          0.594088376, -1.20283353, -0.744348109, -0.540495276,
          -0.372309178, -0.189831808, -0.133038118, -0.163663596,
          -0.133038118, -0.234618366, -0.458831608, 1.76270878,
          1.08157873, 0.816496551, 0.730296493, 0.620920777, 0.553911746,
          0.458831549, 0.540495157, 0.716350555, -1.04446638,
          -0.716350555, -0.607492626, -0.47265625, -0.273434192,
          -0.133038118, -0.0936584473, -0.133038118, -0.133038118,
          -0.0936584473, -0.234618336, -0.325221509, -0.357002616,
          -0.4588314, -0.607492864, 1.34345758, 1.29399371, 1.27029037,
          -0.730296552, -0.567308545, -0.458831429, -0.372309178,
          -0.308606744, -0.133038118, -0.133038118, -0.0936584473,
          -0.0936584473, -0.133038118, -0.133038118, -0.0936584473,
          -0.133038118, -0.213200822, -0.25458765, -0.291385472,
          -0.325221539, -0.357002854, -0.387298316, -0.444877952,
          -0.416496634, -0.357002288, -0.308606714, -0.189831808,
          -0.0936584473, -0.0936584473, -0.0936584473, -0.0936584473,
          -0.0936584473 ]
      - [ 0., -0.0936584473, -0.133038118, -0.163663626, -0.189831808,
          -0.29138571, -0.416496634, -0.486373484, -0.540495157,
          -0.567308962, -0.540495157, -0.472656369, -0.341327995,
          -0.25458765, -0.189831778, -0.189831778, -0.133038118,
          -0.0936584473, -0.0936584473, -0.0936584473, -0.0936584473,
          -0.0936584473, -0.163663447, -0.273434192, -0.372309178,
          -0.499999702, -0.607492685, -0.675053239, -0.846414685,
          -0.991342366, -1.16057634, -0.957427621, -0.758513689,
          -0.472656459, -0.341328233, -0.325221509, -0.189831659,
          -0.0936584473, -0.0936584473, -0.0936584473, -0.163663581,
          -0.189831764, -0.325221479, -0.527046323, -0.688737631,
          -0.924575269, -1.22474492, -1.48136663, -1.99999821,
          -2.11569929, -2.6859436, -2.48746657, -1.99999917, 0.716350615,
          1.18145394, 1.89736676, 2.58198786, -0.234618485,
          -0.0936584473, -0.133038118, -0.189831764, -0.25458768,
          -0.472656339, -0.716350555, -1.02643597, -1.45193315,
          -1.85015595, -2.2478044, -2.6859436, -2.80109644, -2.92973399,
          -3.24037004, 0.308606833, 0.472656369, 0.744348109, 1.0628407,
          1.99999881, -0.25458768, -0.0936584473, -0.133038118,
          -0.213200822, -0.29138574, -0.620920539, -0.974243999,
          -1.45193315, -1.85015583, -2.2478044, -2.11569953, -1.94721866,
          -1.76270962, -1.85015643, -2.32139897, 0.387298405,
          0.430775076, 0.688737631, 0.861640155, 1.34345758,
          -0.341328323, -0.133038118, -0.0936584473, -0.234618559,
          -0.37230891, -0.716350555, -1.18145382, -1.51185739,
          -1.85015607, -1.57634044, -1.54348791, -1.24721873,
          -0.991342366, -1.00873435, -1.14017522, 0.675053179,
          0.540495098, 0.730296493, 0.846414626, 1.24722004,
          -0.444877952, -0.133038118, -0.133038118, -0.273434192,
          -0.402014762, -0.772801816, -1.24721885, -1.51185739,
          -1.42348611, -1.12022412, -0.957427502, -0.716350496,
          -0.688737631, -0.702499568, -0.758513808, 1.10069847,
          0.688737631, 0.816496491, 0.957427621, 1.18145394,
          -0.486373216, -0.133038118, -0.133038118, -0.189831764,
          -0.37230888, -0.787222087, -1.18145382, -1.36930609,
          -1.24721873, -0.89267844, -0.730296552, -0.661437452,
          -0.647883832, -0.594088674, -0.661437392, 1.29399383,
          0.957427561, 0.892678499, 0.957427621, 1.16057634,
          -0.472656488, -0.213200882, -0.0936584473, -0.189831808,
          -0.25458768, -0.801784337, -1.10069859, -1.16057646,
          -1.14017534, -0.744348109, -0.553911626, -0.580697417,
          -0.580697358, -0.580697358, -0.594088554, 1.39596534, 1.120224,
          1.02643573, 1.120224, 1.24722004, -0.458831638, -0.213200867,
          -0.0936584473, -0.163663432, -0.25458768, -0.744348109,
          -1.0444665, -1.0444665, -1.00873435, -0.787221968,
          -0.553911626, -0.499999702, -0.580697358, -0.580697298,
          -0.594088554, -0.758513808, -0.846414685, -0.892678499,
          -0.861640036, -0.772801757, -0.444877982, -0.213200778,
          -0.0936584473, -0.163663432, -0.234618545, -0.758513868,
          -1.0444665, -1.0444665, -1.02643585, -0.831370175,
          -0.647883773, -0.647883773, -0.716350496, -0.702499688,
          -0.758513689, -0.831370234, -0.991342366, -0.87705791,
          -0.846414685, -0.772801757, -0.416496634, -0.189831749,
          -0.0936584473, -0.163663432, -0.25458768, -0.716350496,
          -1.0444665, -1.0628407, -1.20283353, -0.974243999,
          -0.758513749, -0.787221968, -0.846414685, -0.87705785,
          -0.974243999, -1.02643585, -1.10069847, -1.00873435,
          -0.846414685, -0.716350555, -0.387298107, -0.189831749,
          -0.133038118, -0.133038118, -0.234618559, -0.67505312,
          -1.02643597, -1.08157873, -1.24721873, -1.02643585,
          -0.861640155, -0.846414685, -0.87705791, -0.991342366,
          -1.14017534, -1.20283353, -1.24721861, -1.14017522,
          -0.957427561, -0.716350555, -0.387298107, -0.189831749,
          -0.0936584473, -0.133038118, -0.25458768, -0.661437511,
          -0.991342366, -1.10069859, -1.29399371, -1.0444665,
          -0.940875351, -0.957427621, -0.957427621, -1.27029014,
          -1.34345758, -1.29399359, -1.24721861, -1.24721861,
          -0.991342366, -0.647883832, -0.387298107, -0.163663462,
          -0.0936584473, -0.133038118, -0.234618485, -0.634380937,
          -0.92457521, -1.12022376, -1.29399371, -1.120224, -0.924575269,
          -0.861640036, -0.892678499, -1.0628407, -1.14017534,
          -1.51185691, -1.42348599, -1.27029026, -0.991342366,
          -0.772801757, -0.416496664, -0.163663462, -0.0936584473,
          -0.133038118, -0.234618425, -0.607492745, -0.940875351,
          -1.14017498, -1.29399371, -1.0444665, -0.831370115,
          -0.831370234, -0.974243999, -0.974243999, -1.10069859,
          -1.27029014, -1.45193338, -1.18145382, -1.08157873,
          -0.801784217, -0.372309029, -0.163663462, -0.0936584473,
          -0.133038118, -0.213200837, -0.580697358, -0.892678559,
          -1.08157873, -1.20283365, -1.00873435, -0.716350496,
          -0.846414685, -0.957427621, -0.991342366, -1.10069859,
          -1.18145394, -1.31836939, -1.22474492, -1.08157873,
          -0.846414685, -0.472656369, -0.163663462, -0.0936584473,
          -0.133038118, -0.213200837, -0.580697358, -0.846414685,
          -0.991342366, -1.0628407, -0.801784337, -0.730296552,
          -0.730296552, -0.787222087, -0.861640096, -0.991342366,
          -1.08157861, -1.120224, -1.14017522, -1.10069859, -0.908513069,
          -0.472656369, -0.163663462, -0.163663462, -0.133038118,
          -0.189831734, -0.567308545, -0.758513808, -0.877058089,
          -0.940875351, -0.772801757, -0.634380937, -0.675053179,
          -0.758513749, -0.801784217, -0.924575269, -0.940875351,
          -1.0444665, -1.12022388, -1.10069859, 1.08157861, -0.553911567,
          -0.213200733, -0.163663462, -0.0936584473, -0.189831704,
          -0.567308545, -0.730296552, -0.846414685, -0.861639977,
          -0.716350496, -0.594088495, -0.634380937, -0.716350496,
          -0.758513749, -0.744348109, -0.831370234, -0.908513129,
          -1.0628407, 0.892678559, 1.08157861, -0.580697298,
          -0.234618574, -0.163663462, -0.133038118, -0.213200793,
          -0.540495038, -0.730296552, -0.861640036, -0.861640036,
          -0.730296552, -0.567308605, -0.594088495, -0.675053179,
          -0.647883832, -0.675053179, -0.787221968, -0.87705797,
          0.87705791, 0.892678559, 1.04446638, -0.580697298,
          -0.234618574, -0.163663462, -0.163663581, -0.25458762,
          -0.580697358, -0.816496611, -0.924575269, -1.02643585,
          -0.787222087, -0.634380937, -0.607492685, -0.634380937,
          -0.647883832, -0.675053179, -0.772801757, 1.00873435,
          0.892678559, 0.892678559, 1.02643561, -0.513552189,
          -0.213200748, -0.163663656, -0.163663581, -0.308606684,
          -0.634380937, -0.974243939, -1.20283353, -1.29399371,
          -0.991342366, -0.730296552, -0.594088554, -0.580697358,
          -0.594088554, -0.730296552, 1.20283353, 0.940875351,
          0.831370354, 0.831370234, 1.02643561, -0.499999732,
          -0.213200748, -0.163663656, -0.189831808, -0.291385919,
          -0.67505306, -1.0628407, -1.36930609, -1.61051321, 0.716350615,
          1.18145394, 1.51185703, 1.54348803, 1.45193338, 1.08157873,
          0.90851295, 0.801783383, 0.787222147, 0.831370354, 1.10069835,
          -0.402014673, -0.163663656, -0.163663656, -0.213201016,
          -0.273434192, -0.634380937, -1.08157873, -1.45193338,
          0.553911567, 0.580697298, 0.801783502, 1.0444665, 1.0444665,
          0.957427561, 0.816496611, 0.620920777, 0.647883773,
          0.688737631, 0.816496491, 1.24722004, -0.387297958,
          -0.189831808, -0.163663656, -0.163663641, -0.234618455,
          -0.527046323, -0.957427561, 0.730296493, 0.553911746,
          0.553911746, 0.607492685, 0.730296493, 0.675053179,
          0.567308545, 0.553911686, 0.472656369, 0.527046204,
          0.661437571, 0.861640096, 1.57634044, -0.402014643,
          -0.189831808, -0.0936584473, -0.163663641, -0.189831823,
          -0.458831638, -0.634380937, -0.92457521, 0.661437452,
          0.675053179, 0.620920777, 0.594088554, 0.499999881,
          0.430775076, 0.458831549, 0.402014822, 0.594088376,
          0.831370175, 1.3434577, 1.85015678, -0.372309178, -0.189831808,
          -0.133038118, -0.163663596, -0.133038118, -0.234618366,
          -0.458831608, -0.567308545, 1.08157873, 0.816496551,
          0.730296493, 0.620920777, 0.553911746, -2.17944956,
          -1.85015619, -1.3959651, 0.957427502, 1.39596534, 1.64610898,
          2.11569953, -0.273434192, -0.133038118, -0.0936584473,
          -0.133038118, -0.133038118, -0.0936584473, -0.234618336,
          -0.325221509, -0.357002616, -0.4588314, -0.607492864,
          -0.744348109, -0.772801816, -0.787222087, -0.730296552,
          -0.567308545, -0.458831429, -0.372309178, -0.308606744,
          -0.133038118, -0.133038118, -0.0936584473, -0.0936584473,
          -0.133038118, -0.133038118, -0.0936584473, -0.133038118,
          -0.213200822, -0.25458765, -0.291385472, -0.325221539,
          -0.357002854, -0.387298316, -0.444877952, -0.416496634,
          -0.357002288, -0.308606714, -0.189831808, -0.0936584473,
          -0.0936584473, -0.0936584473, -0.0936584473, -0.0936584473 ]
      - [ 0., -0.0936584473, -0.133038118, -0.163663626, -0.189831808,
          -0.29138571, -0.416496634, -0.486373484, -0.540495157,
          -0.567308962, -0.540495157, -0.472656369, -0.341327995,
          -0.25458765, -0.189831778, -0.189831778, -0.133038118,
          -0.0936584473, -0.0936584473, -0.0936584473, -0.0936584473,
          -0.0936584473, -0.163663447, -0.273434192, -0.372309178,
          -0.499999702, -0.607492685, -0.675053239, -0.846414685,
          -0.991342366, -1.16057634, -0.957427621, -0.758513689,
          -0.472656459, -0.341328233, -0.325221509, -0.189831659,
          -0.0936584473, -0.0936584473, -0.0936584473, -0.163663581,
          -0.189831764, -0.325221479, -0.527046323, 1.45193338,
          1.08157873, 0.816496551, 0.67505312, 0.499999523, 0.47265631,
          0.372309059, 0.402014732, 0.499999732, 0.716350615,
          -0.846414685, -0.527046323, -0.387298137, -0.234618485,
          -0.0936584473, -0.133038118, -0.189831764, -0.25458768,
          -0.472656339, -0.716350555, 0.974244356, 0.688737571,
          0.540495038, 0.444877952, 0.372309059, 0.357002527,
          0.341328233, 0.308606595, 0.308606833, 0.472656369,
          0.744348109, -0.940875351, -0.499999702, -0.25458768,
          -0.0936584473, -0.133038118, -0.213200822, -0.29138574,
          -0.620920539, 1.02643573, 0.688737571, 0.540495038,
          0.444878012, 0.472656369, 0.513552189, 0.567308784,
          0.540495157, 0.430775076, 0.387298405, 0.430775076,
          0.688737631, 0.861640155, -0.744348109, -0.341328323,
          -0.133038118, -0.0936584473, -0.234618559, -0.37230891,
          1.39596534, 0.846414685, 0.661437571, 0.540495098, 0.634380996,
          0.647883773, 0.801783562, 1.00873435, 0.991342425, 0.87705791,
          0.675053179, 0.540495098, 0.730296493, 0.846414626, 1.24722004,
          -0.444877952, -0.133038118, -0.133038118, -0.273434192,
          -0.402014762, 1.29399371, 0.801783621, 0.661437571,
          0.702499688, 0.892678618, 1.04446638, 1.39596522, 1.45193338,
          1.42348599, 1.31836927, 1.10069847, 0.688737631, 0.816496491,
          0.957427621, 1.18145394, -0.486373216, -0.133038118,
          -0.133038118, -0.189831764, -0.37230888, -0.787222087,
          -1.18145382, 0.730296493, 0.801783562, 1.120224, 1.36930597,
          1.51185715, 1.54348791, 1.68325114, 1.51185703, 1.29399383,
          0.957427561, 0.892678499, 0.957427621, 1.16057634, 2.11570048,
          -0.213200882, -0.0936584473, -0.189831808, -0.25458768,
          -0.801784337, -1.10069859, -1.16057646, 0.87705797, 1.34345758,
          1.80534172, 1.72206831, 1.72206819, 1.72206819, 1.6832509,
          1.39596534, 1.120224, 1.02643573, 1.120224, 1.24722004,
          2.17945027, -0.213200867, -0.0936584473, -0.163663432,
          -0.25458768, -0.744348109, -1.0444665, -1.0444665, -1.00873435,
          -0.787221968, -0.553911626, -0.499999702, -0.580697358,
          1.72206807, 1.6832509, 1.31836927, 1.18145394, 1.120224,
          1.16057634, 1.29399359, -0.444877982, -0.213200778,
          -0.0936584473, -0.163663432, -0.234618545, -0.758513868,
          -1.0444665, -1.0444665, -1.02643585, -0.831370175,
          -0.647883773, -0.647883773, -0.716350496, 1.42348623,
          1.31836903, 1.20283353, 1.00873435, 1.14017534, 1.18145394,
          1.29399359, -0.416496634, -0.189831749, -0.0936584473,
          -0.163663432, 3.92792416, -0.716350496, -1.0444665, -1.0628407,
          -1.20283353, -0.974243999, -0.758513749, -0.787221968,
          -0.846414685, 1.14017522, 1.02643573, 0.974244237, 0.90851295,
          0.991342425, 1.18145394, 1.39596534, -0.387298107,
          -0.189831749, -0.133038118, -0.133038118, 4.26223707,
          -0.67505312, -1.02643597, -1.08157873, -1.24721873,
          -1.02643585, -0.861640155, -0.846414685, -0.87705791,
          1.00873435, 0.877058029, 0.831370175, 0.801783442, 0.87705791,
          1.04446638, 1.39596534, -0.387298107, -0.189831749,
          -0.0936584473, -0.133038118, -0.25458768, -0.661437511,
          -0.991342366, -1.10069859, -1.29399371, -1.0444665,
          -0.940875351, -0.957427621, -0.957427621, 0.787222087,
          0.744348109, 0.772801757, 0.801783502, 0.801783502, 1.00873435,
          -0.647883832, -0.387298107, -0.163663462, -0.0936584473,
          -0.133038118, -0.234618485, -0.634380937, -0.92457521,
          -1.12022376, -1.29399371, -1.120224, -0.924575269,
          -0.861640036, -0.892678499, 0.940875351, 0.877058029,
          0.661437392, 0.702499628, 0.787222147, 1.00873435,
          -0.772801757, -0.416496664, -0.163663462, -0.0936584473,
          -0.133038118, -0.234618425, -0.607492745, -0.940875351,
          -1.14017498, -1.29399371, -1.0444665, -0.831370115,
          -0.831370234, 1.02643573, 1.02643573, 0.90851301, 0.787222087,
          0.688737631, 0.846414685, 0.924575329, -0.801784217,
          -0.372309029, -0.163663462, -0.0936584473, -0.133038118,
          -0.213200837, -0.580697358, -0.892678559, -1.08157873,
          -1.20283365, -1.00873435, -0.716350496, -0.846414685,
          1.0444665, 1.00873435, 0.90851301, 0.846414685, 0.758513868,
          0.816496491, 0.924575329, -0.846414685, -0.472656369,
          -0.163663462, -0.0936584473, -0.133038118, -0.213200837,
          -0.580697358, -0.846414685, -0.991342366, -1.0628407,
          -0.801784337, -0.730296552, 1.36930597, 1.27029037, 1.16057646,
          1.00873435, 0.92457521, 0.892678618, 0.87705791, -1.10069859,
          -0.908513069, -0.472656369, -0.163663462, -0.163663462,
          -0.133038118, -0.189831734, -0.567308545, -0.758513808,
          -0.877058089, -0.940875351, -0.772801757, -0.634380937,
          1.48136663, 1.31836915, 1.2472198, 1.08157873, 1.0628407,
          0.957427621, 0.892678499, -1.10069859, -0.92457521,
          -0.553911567, -0.213200733, -0.163663462, -0.0936584473,
          -0.189831704, -0.567308545, -0.730296552, -0.846414685,
          -0.861639977, -0.716350496, -0.594088495, 1.57634044,
          1.39596522, 1.31836915, 1.34345758, 1.20283353, 1.10069847,
          0.940875351, -1.12022388, -0.92457521, -0.580697298,
          -0.234618574, -0.163663462, -0.133038118, -0.213200793,
          -0.540495038, -0.730296552, -0.861640036, -0.861640036,
          -0.730296552, -0.567308605, 1.68325067, 1.48136675, 1.54348791,
          1.48136663, 1.27029014, 1.14017534, 0.87705791, -1.12022388,
          -0.957427561, -0.580697298, -0.234618574, -0.163663462,
          -0.163663581, -0.25458762, -0.580697358, -0.816496611,
          -0.924575269, -1.02643585, -0.787222087, 1.57634044, 1.6461091,
          1.57634044, 1.54348791, 1.48136663, 1.29399359, 1.00873435,
          -1.12022388, -1.12022388, -0.974243879, -0.513552189,
          -0.213200748, -0.163663656, -0.163663581, -0.308606684,
          -0.634380937, -0.974243939, -1.20283353, -1.29399371,
          -0.991342366, 1.36930597, 1.6832509, 1.72206819, 1.6832509,
          1.36930597, 1.20283353, 0.940875351, -1.20283377, -1.20283353,
          -0.974243879, -0.499999732, -0.213200748, -0.163663656,
          -0.189831808, -0.291385919, -0.67505306, -1.0628407,
          -1.36930609, -1.61051321, -1.39596522, 1.18145394, 1.51185703,
          1.54348803, 1.45193338, 1.08157873, 0.90851295, 0.801783383,
          -1.27029026, -1.20283377, -0.90851301, -0.402014673,
          -0.163663656, -0.163663656, -0.213201016, -0.273434192,
          -0.634380937, -1.08157873, -1.45193338, -1.80534112,
          -1.72206807, 0.801783502, 1.0444665, 1.0444665, 0.957427561,
          0.816496611, 0.620920777, 0.647883773, -1.45193326,
          -1.22474492, -0.801784337, -0.387297958, -0.189831808,
          -0.163663656, -0.163663641, -0.234618455, -0.527046323,
          -0.957427561, -1.36930609, -1.80534172, -1.80534172,
          0.607492685, 0.730296493, 0.675053179, 0.567308545,
          0.553911686, 0.472656369, -1.89736629, -1.51185739,
          -1.16057646, -0.634380937, -0.402014643, -0.189831808,
          -0.0936584473, -0.163663641, 5.26783323, -0.458831638,
          -0.634380937, -0.92457521, -1.51185715, -1.48136663,
          0.620920777, 0.594088554, 0.499999881, 0.430775076,
          0.458831549, 0.402014822, -1.68325055, -1.20283353,
          -0.744348109, -0.540495276, -0.372309178, -0.189831808,
          -0.133038118, -0.163663596, -0.133038118, -0.234618366,
          -0.458831608, -0.567308545, -0.924575269, -1.22474492,
          -1.36930609, 0.620920777, 0.553911746, 0.458831549,
          0.540495157, -1.3959651, -1.04446638, -0.716350555,
          -0.607492626, -0.47265625, -0.273434192, -0.133038118,
          -0.0936584473, -0.133038118, -0.133038118, -0.0936584473,
          -0.234618336, -0.325221509, -0.357002616, -0.4588314,
          -0.607492864, -0.744348109, -0.772801816, -0.787222087,
          -0.730296552, -0.567308545, -0.458831429, -0.372309178,
          -0.308606744, -0.133038118, -0.133038118, -0.0936584473,
          -0.0936584473, -0.133038118, -0.133038118, -0.0936584473,
          -0.133038118, -0.213200822, -0.25458765, -0.291385472,
          -0.325221539, -0.357002854, -0.387298316, -0.444877952,
          -0.416496634, -0.357002288, -0.308606714, -0.189831808,
          -0.0936584473, -0.0936584473, -0.0936584473, -0.0936584473,
          -0.0936584473 ]
      - [ 0., -0.0936584473, -0.133038118, -0.163663626, -0.189831808,
          -0.29138571, -0.416496634, -0.486373484, -0.540495157,
          -0.567308962, -0.540495157, -0.472656369, -0.341327995,
          -0.25458765, -0.189831778, -0.189831778, -0.133038118,
          -0.0936584473, -0.0936584473, -0.0936584473, -0.0936584473,
          -0.0936584473, -0.163663447, -0.273434192, 2.6859448,
          1.99999881, -0.607492685, -0.675053239, -0.846414685,
          -0.991342366, -1.16057634, -0.957427621, -0.758513689,
          -0.472656459, -0.341328233, -0.325221509, -0.189831659,
          -0.0936584473, -0.0936584473, -0.0936584473, -0.163663581,
          -0.189831764, -0.325221479, 1.89736676, 1.45193338, 1.08157873,
          0.816496551, -1.48136663, -1.99999821, -2.11569929, -2.6859436,
          -2.48746657, -1.99999917, -1.39596522, -0.846414685,
          -0.527046323, -0.387298137, -0.234618485, -0.0936584473,
          -0.133038118, -0.189831764, -0.25458768, -0.472656339,
          -0.716350555, 0.974244356, 0.688737571, 0.540495038,
          0.444877952, -2.6859436, -2.80109644, -2.92973399, -3.24037004,
          -3.24037242, -2.11569953, 0.744348109, 1.0628407, -0.499999702,
          -0.25458768, -0.0936584473, -0.133038118, -0.213200822,
          -0.29138574, -0.620920539, -0.974243999, 0.688737571,
          0.540495038, 0.444878012, 0.472656369, 0.513552189,
          -1.76270962, -1.85015643, -2.32139897, -2.58198881,
          -2.32139897, 0.688737631, 0.861640155, -0.744348109,
          -0.341328323, -0.133038118, -0.0936584473, -0.234618559,
          -0.37230891, -0.716350555, -1.18145382, -1.51185739,
          0.540495098, 0.634380996, 0.647883773, 0.801783562, 1.00873435,
          -1.00873435, -1.14017522, -1.48136663, 0.540495098,
          0.730296493, 0.846414626, -0.801784337, -0.444877952,
          -0.133038118, -0.133038118, -0.273434192, -0.402014762,
          -0.772801816, -1.24721885, -1.51185739, -1.42348611,
          0.892678618, 1.04446638, 1.39596522, 1.45193338, -0.702499568,
          -0.758513808, -0.908513129, 0.688737631, 0.816496491,
          0.957427621, -0.846414685, -0.486373216, -0.133038118,
          -0.133038118, -0.189831764, -0.37230888, -0.787222087,
          -1.18145382, -1.36930609, -1.24721873, 1.120224, 1.36930597,
          1.51185715, 1.54348791, -0.594088674, -0.661437392,
          -0.772801876, 0.957427561, 0.892678499, 0.957427621,
          -0.861640036, -0.472656488, -0.213200882, -0.0936584473,
          -0.189831808, -0.25458768, -0.801784337, -1.10069859,
          -1.16057646, -1.14017534, 1.34345758, 1.80534172, 1.72206831,
          1.72206819, -0.580697358, -0.594088554, -0.716350555,
          -0.89267844, 1.02643573, 1.120224, -0.801784337, -0.458831638,
          -0.213200867, -0.0936584473, -0.163663432, -0.25458768,
          -0.744348109, -1.0444665, -1.0444665, -1.00873435, 1.27029014,
          1.80534172, 1.99999881, 1.72206819, -0.580697298, -0.594088554,
          -0.758513808, -0.846414685, 1.120224, 1.16057634, -0.772801757,
          -0.444877982, -0.213200778, -0.0936584473, -0.163663432,
          -0.234618545, -0.758513868, -1.0444665, -1.0444665,
          -1.02643585, 1.20283353, 1.54348779, 1.54348779, 1.39596522,
          -0.702499688, -0.758513689, -0.831370234, -0.991342366,
          -0.87705791, 1.18145394, -0.772801757, -0.416496634,
          -0.189831749, -0.0936584473, -0.163663432, -0.25458768,
          -0.716350496, -1.0444665, -1.0628407, -1.20283353, 1.02643573,
          1.31836915, 1.27029014, 1.18145382, -0.87705785, -0.974243999,
          -1.02643585, -1.10069847, -1.00873435, 1.18145394,
          -0.716350555, -0.387298107, -0.189831749, -0.133038118,
          -0.133038118, -0.234618559, -0.67505312, -1.02643597,
          -1.08157873, 0.801783562, 0.974244297, 1.16057646, 1.18145382,
          1.14017534, -0.991342366, -1.14017534, -1.20283353,
          -1.24721861, -1.14017522, 1.04446638, -0.716350555,
          -0.387298107, -0.189831749, -0.0936584473, -0.133038118,
          -0.25458768, -0.661437511, -0.991342366, -1.10069859,
          0.772801816, 0.957427621, 1.0628407, 1.0444665, -0.957427621,
          -1.27029014, -1.34345758, -1.29399359, -1.24721861,
          -1.24721861, -0.991342366, -0.647883832, -0.387298107,
          -0.163663462, -0.0936584473, -0.133038118, -0.234618485,
          -0.634380937, -0.92457521, 0.89267844, 0.772801816,
          0.892678618, 1.08157873, 1.16057634, -0.892678499, -1.0628407,
          -1.14017534, -1.51185691, -1.42348599, -1.27029026,
          -0.991342366, -0.772801757, -0.416496664, -0.163663462,
          -0.0936584473, -0.133038118, -0.234618425, -0.607492745,
          -0.940875351, 0.877057731, 0.772801816, 0.957427621,
          1.20283341, 1.20283353, -0.974243999, -0.974243999,
          -1.10069859, -1.27029014, -1.45193338, -1.18145382,
          -1.08157873, -0.801784217, -0.372309029, -0.163663462,
          -0.0936584473, -0.133038118, -0.213200837, -0.580697358,
          -0.892678559, 0.924575329, 0.831370294, 0.991342425,
          1.39596522, 1.18145394, -0.957427621, -0.991342366,
          -1.10069859, -1.18145394, -1.31836939, -1.22474492,
          -1.08157873, -0.846414685, -0.472656369, -0.163663462,
          -0.0936584473, -0.133038118, -0.213200837, -0.580697358,
          1.18145394, 1.00873435, 0.940875351, 1.24722004, 1.36930597,
          -0.730296552, -0.787222087, -0.861640096, -0.991342366,
          -1.08157861, -1.120224, -1.14017522, -1.10069859, -0.908513069,
          -0.472656369, -0.163663462, -0.163663462, -0.133038118,
          -0.189831734, -0.567308545, 1.31836927, 1.14017546, 1.0628407,
          1.29399359, 1.57634044, -0.675053179, -0.758513749,
          -0.801784217, -0.924575269, -0.940875351, -1.0444665,
          -1.12022388, -1.10069859, -0.92457521, -0.553911567,
          -0.213200733, -0.163663462, -0.0936584473, -0.189831704,
          -0.567308545, 1.36930585, 1.18145394, 1.16057622, 1.39596522,
          -0.594088495, -0.634380937, -0.716350496, -0.758513749,
          -0.744348109, -0.831370234, -0.908513129, -1.0628407,
          -1.12022388, -0.92457521, -0.580697298, -0.234618574,
          -0.163663462, -0.133038118, -0.213200793, -0.540495038,
          1.36930585, 1.16057634, 1.16057634, 1.36930597, -0.567308605,
          -0.594088495, -0.675053179, -0.647883832, -0.675053179,
          -0.787221968, -0.87705797, -1.14017522, -1.12022388,
          -0.957427561, -0.580697298, -0.234618574, -0.163663462,
          -0.163663581, -0.25458762, -0.580697358, 1.22474492,
          1.08157873, 0.974244297, 1.27029037, -0.634380937,
          -0.607492685, -0.634380937, -0.647883832, -0.675053179,
          -0.772801757, -0.991342366, -1.12022388, -1.12022388,
          -0.974243879, -0.513552189, -0.213200748, -0.163663656,
          -0.163663581, -0.308606684, -0.634380937, 1.02643573,
          0.831370234, 0.772801816, -0.991342366, -0.730296552,
          -0.594088554, -0.580697358, -0.594088554, -0.730296552,
          -0.831370175, -1.0628407, -1.20283377, -1.20283353,
          -0.974243879, -0.499999732, -0.213200748, -0.163663656,
          -0.189831808, -0.291385919, -0.67505306, 0.940875351,
          0.730296493, 0.620920777, -1.39596522, -0.846414685,
          -0.661437392, -0.647883832, -0.688737631, -0.924575269,
          -1.10069847, -1.24721849, -1.27029026, -1.20283377,
          -0.90851301, -0.402014673, -0.163663656, -0.163663656,
          -0.213201016, -0.273434192, -0.634380937, 0.924575329,
          0.688737631, 0.553911567, 0.580697298, 0.801783502, 1.0444665,
          1.0444665, 0.957427561, 0.816496611, 0.620920777, 0.647883773,
          0.688737631, -1.22474492, -0.801784337, -0.387297958,
          -0.189831808, -0.163663656, -0.163663641, -0.234618455,
          -0.527046323, 1.04446638, 0.730296493, 0.553911746,
          0.553911746, 0.607492685, 0.730296493, 0.675053179,
          0.567308545, 0.553911686, 0.472656369, 0.527046204,
          0.661437571, -1.16057646, -0.634380937, -0.402014643,
          -0.189831808, -0.0936584473, -0.163663641, -0.189831823,
          -0.458831638, 1.57634044, 1.08157861, 0.661437452, 0.675053179,
          0.620920777, 0.594088554, 0.499999881, 0.430775076,
          0.458831549, 0.402014822, 0.594088376, 0.831370175, 1.3434577,
          -0.540495276, -0.372309178, -0.189831808, -0.133038118,
          -0.163663596, -0.133038118, -0.234618366, -0.458831608,
          1.76270878, 1.08157873, 0.816496551, 0.730296493, 0.620920777,
          0.553911746, 0.458831549, 0.540495157, 0.716350555,
          0.957427502, 1.39596534, 1.64610898, -0.47265625, -0.273434192,
          -0.133038118, -0.0936584473, -0.133038118, -0.133038118,
          -0.0936584473, -0.234618336, 3.07482171, 2.80109739,
          2.17944908, 1.64610958, 1.34345758, 1.29399371, 1.27029037,
          1.36930597, 1.76270878, 2.17944932, 2.6859448, -0.308606744,
          -0.133038118, -0.133038118, -0.0936584473, -0.0936584473,
          -0.133038118, -0.133038118, -0.0936584473, -0.133038118,
          4.69041824, 3.92792368, 3.43187308, 3.07482219, -0.357002854,
          -0.387298316, -0.444877952, -0.416496634, 2.80109477,
          3.24037051, 5.26783276, -0.0936584473, -0.0936584473,
          -0.0936584473, -0.0936584473, -0.0936584473 ]
      - [ 0., -0.0936584473, -0.133038118, -0.163663626, 5.26783276,
          3.43187618, 2.40098071, 2.05603337, 1.85015655, 1.76271009,
          -0.540495157, -0.472656369, -0.341327995, -0.25458765,
          -0.189831778, -0.189831778, -0.133038118, -0.0936584473,
          -0.0936584473, -0.0936584473, -0.0936584473, -0.0936584473,
          -0.163663447, 3.65718246, 2.6859448, 1.99999881, 1.6461091,
          1.48136687, 1.18145382, 1.00873435, 0.861640036, -0.957427621,
          -0.758513689, -0.472656459, -0.341328233, -0.325221509,
          -0.189831659, -0.0936584473, -0.0936584473, -0.0936584473,
          -0.163663581, -0.189831764, 3.07482147, 1.89736676, 1.45193338,
          1.08157873, 0.816496551, 0.67505312, 0.499999523, 0.47265631,
          0.372309059, 0.402014732, 0.499999732, -1.39596522,
          -0.846414685, -0.527046323, -0.387298137, -0.234618485,
          -0.0936584473, 7.51665354, -0.189831764, 3.92792439,
          2.11569977, 1.39596534, 0.974244356, 0.688737571, 0.540495038,
          0.444877952, 0.372309059, 0.357002527, 0.341328233,
          0.308606595, 0.308606833, 0.472656369, -1.34345758,
          -0.940875351, -0.499999702, -0.25458768, -0.0936584473,
          7.51665354, 4.69041824, 3.43187666, 1.61051273, 1.02643573,
          0.688737571, 0.540495038, 0.444878012, 0.472656369,
          0.513552189, 0.567308784, 0.540495157, 0.430775076,
          0.387298405, 0.430775076, 0.688737631, -1.16057646,
          -0.744348109, -0.341328323, -0.133038118, -0.0936584473,
          4.26223707, 2.68594289, 1.39596534, 0.846414685, 0.661437571,
          0.540495098, -1.57634044, -1.54348791, -1.24721873,
          -0.991342366, -1.00873435, 0.87705791, 0.675053179,
          0.540495098, 0.730296493, 0.846414626, -0.801784337,
          -0.444877952, -0.133038118, -0.133038118, 3.65718246,
          2.48746634, 1.29399371, 0.801783621, 0.661437571, -1.42348611,
          -1.12022412, -0.957427502, -0.716350496, -0.688737631,
          -0.702499568, -0.758513808, 1.10069847, 0.688737631,
          0.816496491, 0.957427621, -0.846414685, -0.486373216,
          -0.133038118, -0.133038118, -0.189831764, 2.68594265,
          1.27029037, 0.846414685, 0.730296493, -1.24721873, -0.89267844,
          -0.730296552, -0.661437452, -0.647883832, -0.594088674,
          -0.661437392, 1.29399383, 0.957427561, 0.892678499,
          0.957427621, -0.861640036, -0.472656488, -0.213200882,
          -0.0936584473, -0.189831808, -0.25458768, 1.24722004,
          0.90851301, 0.861640096, -1.14017534, -0.744348109,
          -0.553911626, -0.580697417, -0.580697358, -0.580697358,
          -0.594088554, -0.716350555, 1.120224, 1.02643573, 1.120224,
          1.24722004, -0.458831638, -0.213200867, -0.0936584473,
          -0.163663432, -0.25458768, 1.34345758, 0.957427621,
          0.957427621, -1.00873435, -0.787221968, -0.553911626,
          -0.499999702, -0.580697358, -0.580697298, -0.594088554,
          -0.758513808, 1.18145394, 1.120224, 1.16057634, 1.29399359,
          -0.444877982, -0.213200778, -0.0936584473, -0.163663432,
          -0.234618545, 1.31836939, 0.957427621, 0.957427621,
          -1.02643585, -0.831370175, -0.647883773, -0.647883773,
          -0.716350496, -0.702499688, -0.758513689, -0.831370234,
          1.00873435, 1.14017534, 1.18145394, 1.29399359, -0.416496634,
          -0.189831749, -0.0936584473, -0.163663432, -0.25458768,
          1.39596522, 0.957427621, 0.940875351, 0.831370175,
          -0.974243999, -0.758513749, -0.787221968, -0.846414685,
          -0.87705785, -0.974243999, -1.02643585, 0.90851295,
          0.991342425, 1.18145394, 1.39596534, -0.387298107,
          -0.189831749, -0.133038118, -0.133038118, -0.234618559,
          -0.67505312, 0.974244356, 0.924575329, 0.801783562,
          -1.02643585, -0.861640155, -0.846414685, -0.87705791,
          -0.991342366, -1.14017534, -1.20283353, 0.801783442,
          0.87705791, 1.04446638, 1.39596534, -0.387298107, -0.189831749,
          -0.0936584473, -0.133038118, -0.25458768, -0.661437511,
          1.00873435, 0.908513069, 0.772801816, -1.0444665, -0.940875351,
          -0.957427621, -0.957427621, -1.27029014, -1.34345758,
          -1.29399359, 0.801783502, 0.801783502, 1.00873435, 1.54348791,
          -0.387298107, -0.163663462, -0.0936584473, -0.133038118,
          -0.234618485, -0.634380937, -0.92457521, 0.89267844,
          0.772801816, 0.892678618, -0.924575269, -0.861640036,
          -0.892678499, -1.0628407, -1.14017534, -1.51185691,
          0.702499628, 0.787222147, 1.00873435, 1.29399359, 2.40098071,
          -0.163663462, -0.0936584473, -0.133038118, -0.234618425,
          -0.607492745, -0.940875351, 0.877057731, 0.772801816,
          0.957427621, 1.20283341, 1.20283353, -0.974243999,
          -0.974243999, -1.10069859, 0.787222087, 0.688737631,
          0.846414685, 0.924575329, 1.2472198, 2.68594384, -0.163663462,
          -0.0936584473, -0.133038118, -0.213200837, -0.580697358,
          -0.892678559, -1.08157873, -1.20283365, 0.991342425,
          1.39596522, 1.18145394, 1.0444665, 1.00873435, 0.90851301,
          0.846414685, 0.758513868, 0.816496491, 0.924575329, 1.18145394,
          2.11570001, -0.163663462, -0.0936584473, -0.133038118,
          -0.213200837, -0.580697358, -0.846414685, -0.991342366,
          -1.0628407, -0.801784337, 1.36930597, 1.36930597, 1.27029037,
          1.16057646, 1.00873435, 0.92457521, 0.892678618, 0.87705791,
          0.90851301, 1.10069847, 2.11570001, -0.163663462, -0.163663462,
          -0.133038118, -0.189831734, -0.567308545, -0.758513808,
          -0.877058089, -0.940875351, -0.772801757, -0.634380937,
          -0.675053179, -0.758513749, -0.801784217, 1.08157873,
          1.0628407, 0.957427621, 0.892678499, 0.90851301, 1.08157861,
          1.8053416, -0.213200733, -0.163663462, -0.0936584473,
          -0.189831704, -0.567308545, -0.730296552, -0.846414685,
          -0.861639977, -0.716350496, -0.594088495, -0.634380937,
          -0.716350496, -0.758513749, -0.744348109, -0.831370234,
          -0.908513129, -1.0628407, 0.892678559, 1.08157861, 1.72206807,
          4.26223755, -0.163663462, -0.133038118, -0.213200793,
          -0.540495038, -0.730296552, -0.861640036, -0.861640036,
          -0.730296552, -0.567308605, -0.594088495, -0.675053179,
          -0.647883832, -0.675053179, -0.787221968, -0.87705797,
          -1.14017522, -1.12022388, 1.04446638, 1.72206807, 4.26223755,
          -0.163663462, -0.163663581, -0.25458762, -0.580697358,
          -0.816496611, -0.924575269, 0.974244297, 1.27029037,
          1.57634044, 1.6461091, -0.634380937, -0.647883832,
          -0.675053179, -0.772801757, -0.991342366, -1.12022388,
          -1.12022388, 1.02643561, 1.94721866, 4.69041634, 6.11011028,
          -0.163663581, -0.308606684, -0.634380937, -0.974243939,
          -1.20283353, 0.772801816, 1.00873435, 1.36930597, 1.6832509,
          1.72206819, -0.594088554, -0.730296552, -0.831370175,
          -1.0628407, -1.20283377, 0.831370234, 1.02643561, 1.99999893,
          4.69041634, 6.11011028, 5.26783276, 3.43187857, -0.67505306,
          -1.0628407, -1.36930609, 0.620920777, 0.716350615, 1.18145394,
          1.51185703, 1.54348803, 1.45193338, 1.08157873, 0.90851295,
          -1.24721849, 0.787222147, 0.831370354, 1.10069835, 2.4874661,
          6.11011028, 6.11011028, 4.69042206, 3.65718246, 1.57634044,
          -1.08157873, -1.45193338, -1.80534112, 0.580697298,
          0.801783502, 1.0444665, 1.0444665, 0.957427561, 0.816496611,
          0.620920777, 0.647883773, 0.688737631, 0.816496491, 1.24722004,
          2.58198667, 5.26783276, 6.11011028, 6.11010981, 4.26223516,
          1.89736688, -0.957427561, -1.36930609, -1.80534172,
          -1.80534172, 0.607492685, 0.730296493, 0.675053179,
          0.567308545, 0.553911686, 0.472656369, 0.527046204,
          0.661437571, 0.861640096, 1.57634044, 2.48746586, 5.26783276,
          -0.0936584473, 6.11010981, 5.26783323, 2.17945027,
          -0.634380937, -0.92457521, -1.51185715, -1.48136663,
          -1.61051309, -1.6832509, 0.499999881, 0.430775076, 0.458831549,
          0.402014822, 0.594088376, 0.831370175, 1.3434577, 1.85015678,
          2.6859448, 5.26783276, -0.133038118, 6.1101079, 7.51665354,
          -0.234618366, -0.458831608, -0.567308545, -0.924575269,
          -1.22474492, -1.36930609, -1.61051309, -1.80534172,
          0.458831549, 0.540495157, 0.716350555, 0.957427502, 1.39596534,
          1.64610898, 2.11569953, 3.65718246, -0.133038118,
          -0.0936584473, -0.133038118, -0.133038118, -0.0936584473,
          -0.234618336, -0.325221509, -0.357002616, -0.4588314,
          -0.607492864, -0.744348109, -0.772801816, -0.787222087,
          -0.730296552, -0.567308545, -0.458831429, -0.372309178,
          -0.308606744, -0.133038118, -0.133038118, -0.0936584473,
          -0.0936584473, -0.133038118, -0.133038118, -0.0936584473,
          -0.133038118, -0.213200822, -0.25458765, -0.291385472,
          -0.325221539, -0.357002854, -0.387298316, -0.444877952,
          -0.416496634, -0.357002288, -0.308606714, -0.189831808,
          -0.0936584473, -0.0936584473, -0.0936584473, -0.0936584473,
          -0.0936584473 ]
      - [ 0., -0.0936584473, -0.133038118, -0.163663626, -0.189831808,
          -0.29138571, -0.416496634, -0.486373484, -0.540495157,
          -0.567308962, -0.540495157, -0.472656369, -0.341327995,
          -0.25458765, -0.189831778, -0.189831778, -0.133038118,
          -0.0936584473, -0.0936584473, -0.0936584473, -0.0936584473,
          -0.0936584473, -0.163663447, -0.273434192, -0.372309178,
          -0.499999702, -0.607492685, -0.675053239, -0.846414685,
          -0.991342366, -1.16057634, -0.957427621, -0.758513689,
          -0.472656459, -0.341328233, -0.325221509, -0.189831659,
          -0.0936584473, -0.0936584473, -0.0936584473, 6.11010742,
          5.2678318, 3.07482147, 1.89736676, 1.45193338, 1.08157873,
          0.816496551, 0.67505312, 0.499999523, 0.47265631, 0.372309059,
          -2.48746657, -1.99999917, -1.39596522, -0.846414685,
          -0.527046323, -0.387298137, -0.234618485, -0.0936584473,
          -0.133038118, 5.2678318, 3.92792439, 2.11569977, 1.39596534,
          0.974244356, 0.688737571, 0.540495038, 0.444877952,
          0.372309059, 0.357002527, 0.341328233, 0.308606595,
          0.308606833, -2.11569953, -1.34345758, -0.940875351,
          -0.499999702, -0.25458768, -0.0936584473, -0.133038118,
          -0.213200822, 3.43187666, 1.61051273, 1.02643573, 0.688737571,
          0.540495038, 0.444878012, 0.472656369, 0.513552189,
          0.567308784, 0.540495157, 0.430775076, 0.387298405,
          0.430775076, -1.45193326, -1.16057646, -0.744348109,
          -0.341328323, -0.133038118, -0.0936584473, -0.234618559,
          -0.37230891, 1.39596534, 0.846414685, 0.661437571, 0.540495098,
          0.634380996, 0.647883773, 0.801783562, 1.00873435, 0.991342425,
          0.87705791, 0.675053179, 0.540495098, 0.730296493, -1.1814537,
          -0.801784337, -0.444877952, -0.133038118, -0.133038118,
          -0.273434192, -0.402014762, 1.29399371, 0.801783621,
          0.661437571, 0.702499688, -1.12022412, -0.957427502,
          -0.716350496, -0.688737631, -0.702499568, 1.31836927,
          1.10069847, 0.688737631, 0.816496491, 0.957427621,
          -0.846414685, -0.486373216, -0.133038118, -0.133038118,
          -0.189831764, -0.37230888, 1.27029037, 0.846414685,
          0.730296493, 0.801783562, -0.89267844, -0.730296552,
          -0.661437452, -0.647883832, -0.594088674, -0.661437392,
          1.29399383, 0.957427561, 0.892678499, 0.957427621,
          -0.861640036, -0.472656488, -0.213200882, -0.0936584473,
          -0.189831808, -0.25458768, 1.24722004, 0.90851301, 0.861640096,
          0.87705797, -0.744348109, -0.553911626, -0.580697417,
          -0.580697358, -0.580697358, -0.594088554, -0.716350555,
          1.120224, 1.02643573, 1.120224, 1.24722004, -0.458831638,
          -0.213200867, -0.0936584473, -0.163663432, -0.25458768,
          -0.744348109, 0.957427621, 0.957427621, 0.991342425,
          -0.787221968, -0.553911626, -0.499999702, -0.580697358,
          -0.580697298, -0.594088554, -0.758513808, 1.18145394, 1.120224,
          1.16057634, 1.29399359, -0.444877982, -0.213200778,
          -0.0936584473, -0.163663432, -0.234618545, -0.758513868,
          0.957427621, 0.957427621, 0.974244297, -0.831370175,
          -0.647883773, -0.647883773, -0.716350496, -0.702499688,
          -0.758513689, -0.831370234, 1.00873435, 1.14017534, 1.18145394,
          1.29399359, -0.416496634, -0.189831749, -0.0936584473,
          -0.163663432, -0.25458768, -0.716350496, 0.957427621,
          0.940875351, 0.831370175, 1.02643573, -0.758513749,
          -0.787221968, -0.846414685, -0.87705785, -0.974243999,
          -1.02643585, -1.10069847, 0.991342425, 1.18145394, 1.39596534,
          2.58198762, -0.189831749, -0.133038118, -0.133038118,
          -0.234618559, -0.67505312, 0.974244356, 0.924575329,
          0.801783562, 0.974244297, -0.861640155, -0.846414685,
          -0.87705791, -0.991342366, -1.14017534, -1.20283353,
          -1.24721861, 0.87705791, 1.04446638, 1.39596534, 2.58198762,
          -0.189831749, -0.0936584473, -0.133038118, -0.25458768,
          -0.661437511, 1.00873435, 0.908513069, 0.772801816,
          0.957427621, -0.940875351, -0.957427621, -0.957427621,
          -1.27029014, -1.34345758, -1.29399359, -1.24721861,
          0.801783502, 1.00873435, 1.54348791, 2.58198762, -0.163663462,
          -0.0936584473, -0.133038118, -0.234618485, -0.634380937,
          1.08157861, 0.89267844, 0.772801816, 0.892678618, -0.924575269,
          -0.861640036, -0.892678499, -1.0628407, -1.14017534,
          -1.51185691, -1.42348599, 0.787222147, 1.00873435, 1.29399359,
          2.40098071, -0.163663462, -0.0936584473, -0.133038118,
          -0.234618425, -0.607492745, 1.0628407, 0.877057731,
          0.772801816, 0.957427621, -0.831370115, -0.831370234,
          -0.974243999, -0.974243999, -1.10069859, -1.27029014,
          -1.45193338, 0.846414685, 0.924575329, 1.2472198, 2.68594384,
          -0.163663462, -0.0936584473, -0.133038118, -0.213200837,
          -0.580697358, -0.892678559, 0.924575329, 0.831370294,
          0.991342425, -0.716350496, -0.846414685, -0.957427621,
          -0.991342366, -1.10069859, -1.18145394, -1.31836939,
          0.816496491, 0.924575329, 1.18145394, 2.11570001, -0.163663462,
          -0.0936584473, -0.133038118, -0.213200837, -0.580697358,
          -0.846414685, 1.00873435, 0.940875351, 1.24722004,
          -0.730296552, -0.730296552, -0.787222087, -0.861640096,
          -0.991342366, -1.08157861, -1.120224, -1.14017522, 0.90851301,
          1.10069847, 2.11570001, -0.163663462, -0.163663462,
          -0.133038118, -0.189831734, -0.567308545, -0.758513808,
          1.14017546, 1.0628407, 1.29399359, 1.57634044, -0.675053179,
          -0.758513749, -0.801784217, -0.924575269, -0.940875351,
          -1.0444665, -1.12022388, 0.90851301, 1.08157861, 1.8053416,
          4.69041586, -0.163663462, -0.0936584473, -0.189831704,
          -0.567308545, -0.730296552, -0.846414685, 1.16057622,
          1.39596522, 1.68325067, -0.634380937, -0.716350496,
          -0.758513749, -0.744348109, -0.831370234, -0.908513129,
          -1.0628407, 0.892678559, 1.08157861, 1.72206807, 4.26223755,
          -0.163663462, 7.51665354, -0.213200793, -0.540495038,
